{"layers": [784, 30, 10], "weights": [[[0.0645132857654273, 0.0035883493769376974, -0.03925082288091966, 0.022310018615610487, -0.03585158733388896, -0.0460875754687478, 0.029465301738406436, -0.007345643174015902, 0.0470536776608432, -0.054446651303110355, -0.07416328225058037, 0.06300385198596459, -0.04850435478298162, -0.01443277619458276, 0.030057681964279218, 0.029976417868905134, -0.040452455708730954, 0.03025709886309995, -0.05595758627888405, -0.005092904744231033, -0.034062862137838726, 0.0003457684559577155, -0.051533361258968284, 0.017504534808714358, -0.05467720006780313, 0.009540836743255624, -0.016750034308203342, 0.029100983865381576, 0.07948798616777579, -0.05039560309515332, 0.03633443457872439, -0.043177648284824434, -0.011604466910849303, 0.0276623673313338, 0.02076418432134347, 0.04624100735154852, -0.005214178893975428, 0.04897135997724071, 5.410546688973502e-05, 0.017904321807744164, -0.010045234475573556, -0.09147091434463492, -0.002718029695766273, -0.08241654296105039, -0.008266333624398282, -0.022478057782460037, 0.05967917320414895, -0.0188655481724844, 0.04538911857154706, 0.004044507429446495, -0.012270401323157203, -0.05035063459430098, -0.006227461983156932, 0.01755660593019, -0.006339094378486982, -0.025776086547772532, -0.019418531980873906, 0.027043804836185105, 0.00010999244408419066, 0.1027323675695561, 0.016071016010448993, 0.00013840168544209045, 0.002045278029156204, -0.03175176217749376, 0.030188465737214724, -0.039522538927163633, 0.013828318965085448, 0.050000262662566346, 0.01574296907839549, -0.015171070416745664, 0.07440580289247342, 0.03170693470702468, -0.034790049272652, 0.01183793253662667, -0.032450463344813926, -0.028004409058357913, -0.031042061514896694, -0.03954526118271138, -0.04226607355374965, -0.050158893442196886, 0.002859866416939929, -0.037755637803466045, 0.016719384651751587, -0.025942012875463886, -0.00665162095260357, -0.05651134757793968, 0.013336226188526156, -0.008600747505424325, -0.008512603808528411, 0.04493619222353116, 0.006795537542239171, -0.024307654866844105, -0.05011416463596546, -0.01141064375549394, -0.0018252244018895792, -0.03120853901057561, 0.03452618630266405, -0.014612005842973633, 0.01103366275089232, 0.01875030505909408, -0.01961218786054803, -0.07675637969955316, -0.07440494163972292, -0.005692659420228779, -0.09810738872788718, -0.021844761614674, -0.03700484195850844, 0.00947455691987187, 0.043206271254959995, 0.046642901287869604, -0.0321159843833317, 0.021614330012275893, -0.046972670813411346, -0.015103556830150232, 0.0683395421878626, 0.010760389058150016, -0.07535887374367432, 0.004996472222848224, 0.05335379070461102, -0.043420919611027606, -0.012860106121886882, -0.0002644641976304842, -0.010283778427945495, -0.014872573126417182, 0.03663488540321726, -0.023374992619387594, -0.012472435401977464, -0.09148253473003894, -0.0654077297528246, -0.06320948993747263, -0.0577737225202047, 0.026074570512508066, -0.0037372620588686737, 0.001473294267970441, 0.06966663922799321, -0.0405584247530544, 0.049900781113189706, 0.0238499713008906, 0.018985968853617082, 0.020298066902017353, 0.0015836205944292417, 0.0030864521316100544, -0.010448955886515659, -0.027133298456047446, -0.009299982221577859, -0.01093758221826691, 0.01770849765802373, -0.004123331624509679, -0.02068333712869302, -0.02413970956801755, -0.04813245376516508, -0.07972133893830873, 0.016180166137319738, 0.017248962450902922, -0.030566777677003915, 0.0647359915558788, -0.006685685395768699, -0.06080668588247392, -0.029999601193148387, 0.06986292169123874, 0.03041224535681621, 0.13130439751399647, 0.009938419146620716, 0.004018011202515614, 0.011736992223480054, 0.03042484561442157, -0.004874581876262429, 0.033529940792129995, 0.012687205356563175, 0.04517399079186019, -0.030645582990001422, -0.010996462342155467, 0.041901940440902875, -0.024845145422955673, -0.00029071113436062725, -0.08761193100209015, -0.003970600985479079, -0.03703585079147924, 0.016196692004837948, -0.0973030198141092, 0.026094236969267708, 0.04189173401531247, -0.011802230252697287, 0.10856630304346618, 0.1272043930904935, 0.15903215477170898, 0.1241855810860556, 0.12960164053845646, 0.09653552113830384, 0.07023111494470398, -0.004077503689169788, 0.030412391897840466, 0.06472047268571395, 0.05028027148370428, 0.0057427705580268456, -0.003461510491211267, -0.009836764260701986, 0.08229305957741775, 0.021615358923964365, -0.05178342597568265, -0.05674663120796123, 0.00836580770068203, -0.08303540999780794, -0.01618727622460399, 0.009288223050690983, -0.04737996998345049, -0.01878495680995233, -0.060484979861035404, 0.03753471480750089, 0.05129490766936561, 0.03690909736382475, 0.1690442390978774, 0.16625833903487855, 0.19603017505810758, 0.17730187193356742, 0.09277111967972874, 0.06150770137000316, -0.029964421968118275, 0.07133308098510906, 0.08356190244488682, 0.06592933628234489, 0.07481616372955263, 0.036413184646962346, 0.015848848243309788, -0.004108062897147098, -0.044896018023579204, 0.030164957607146367, -0.01894564176571033, -0.054193266541640216, -0.0068812091888135925, -0.007232598835245267, 0.05965727683860198, 0.042475622462941065, -0.05581964927983843, -0.002612854682493091, 0.04949222730536882, 0.05764469464525875, -0.025625967143043632, 0.12778556139827793, 0.09861779127075436, 0.06717981721552377, 0.10775485993062392, 0.13034739220195973, 0.058326350565553665, 0.06144055506464243, 0.08434240835861202, 0.07325534826590215, 0.08280344999730811, 0.06363030246333559, 0.0719227903755835, -0.007746064237236593, 0.017898040949327513, 0.03793447374392984, 0.01410904017350083, -0.014136579572463488, -0.02847542343473117, 0.008611145021855688, -0.02287077445032981, 0.014837448754017418, -0.003622276300391949, 0.01504060719566038, -0.04509804620096678, 0.08235088967469666, 0.1408945675946232, 0.041663444468048226, 0.13540802957992756, 0.011566761510689305, -0.01097247484124679, -0.022028251702015972, 0.06016969241747265, 0.0815766300188141, 0.12237799451045592, 0.06793373093526449, 0.035044764529122835, 0.11202977355306148, 0.06113172065040974, 0.041772656554305315, 0.02542590611829802, -0.04036531212995629, 0.014248759377587378, -0.033805483152054124, -0.01581469946420703, -0.030744544255367594, -0.002741968873017336, 0.047282520945585216, -0.03401637911997073, -0.01709767228440972, 0.01925904014180374, 0.05166944439399589, 0.05133599845475999, 0.18537599909281105, 0.17972759922626663, 0.23692140945381543, 0.0913697743427511, 0.06335434301901029, -0.04718690615920304, -0.08736341750587143, -0.026089867346950867, 0.029178304333522188, 0.04029761936945153, -0.04399512112052684, -0.013920400928773665, 2.889602274229149e-05, 0.02372637450586261, 0.0474281508460682, 0.010991018736173051, -0.042869082795846884, -0.04952222039763689, -0.014955636208515649, -0.013029376110322614, -0.02009998118529827, -0.05658940615144935, -0.026569582665275704, -0.04114313886698702, 0.01381128331857772, 0.08325874538705676, 0.010989867006448193, 0.007671592513184285, 0.052472066462318015, 0.12006689216960481, 0.22380484553487717, 0.11459330234972076, -0.04891697701328107, -0.16726245459473366, -0.09641177449118332, -0.18133625038704257, -0.04899329147246498, -0.05010992311691224, -0.02997098469288014, -0.04360900878370285, 0.007204286456843796, 0.0751660495891998, -0.010547523931363791, -0.03430074982662669, 0.024285257396875586, -0.06297992941970694, -0.0037840151427600893, -0.014756517928553804, 0.047529816318017525, 0.025239484707463275, -0.030801302799908496, -0.0008324565508686229, -0.03847598107665835, 0.017291941546179933, -0.011776505946429264, 0.0027412539393206615, 0.05677886630129249, 0.09878687040002401, 0.1132629217266678, 0.0077275413888941115, -0.16203904608911326, -0.2272934145958102, -0.1554399857511329, -0.1480282409019751, -0.00487224077637587, 0.015429615616773872, -0.09613651060032499, -0.012422118426978837, 0.04921912568055272, -0.028078276746495528, -0.003873668122692582, -0.034790547460193263, 0.00742915931345846, -0.0050502232909404535, 0.020372344381271584, 0.020760331659723928, -0.03061170300141221, -0.009309403575353549, -0.05551616235482324, 0.044145982324301225, 0.09303018425638288, 0.011410451965827455, 0.021288318465271554, 0.04123001148619912, 0.024361230535082164, 0.011429785716219477, 0.059004323901123756, 0.049455909095757006, -0.08559535805798071, -0.14477033922064778, -0.1524245796738011, -0.11567629767418165, 0.006175261868200456, -0.1021651374215468, -0.044115053784992066, -0.0364196855115996, -0.043826965696119456, 0.05512723506795762, 0.03181966698547021, -0.007502066619073922, -0.0022721918109375825, -0.016521675970109798, -0.00932183186054087, 0.029690564023785455, -0.0368334510950357, -0.0008957626616584288, -0.02144687264454999, -0.024496299227452934, 0.02771898334863357, -0.039114888683635204, -0.0073933775479008215, 0.034545469557317715, 0.08899152347670851, 0.09487077728964154, 0.0622760509034446, -0.10326496307156738, -0.11919951439298633, -0.06013595970899559, -0.15186607640138552, -0.15042792437236302, -0.12478653666057402, -0.14238262404418112, -0.11833349352603151, -0.011613514867288153, 0.03166940956284331, 0.042512670700953464, 0.04842125745212659, -0.011398516670658216, 0.010163411368058322, -0.02260749770050829, -0.02165390159708545, -0.07545109891156801, 0.021488515789471477, 0.016454510425989145, 0.0007734846658882787, 0.07092473811870435, 0.014140991446014082, -0.016237810512207632, 0.05247369541726009, -0.012433862717195359, 0.055664476415740204, 0.11001664436306526, -0.016263205737671566, -0.09665485788267977, -0.06612236571414801, -0.15374906189722728, -0.19896069276582454, -0.06278349696439109, -0.06489043613902841, -0.09981171924523857, -0.02074927328810706, -0.04210825992718033, -0.06830578169237358, 0.005752459066011697, 0.06718729182198292, 0.026907662253538894, -0.015134692147018474, -0.02264915646068724, 0.035234055631203354, -0.019418077153661503, 0.017447428121538253, 0.06727495589393837, -0.0277240997753823, 0.09261875203143619, 0.07692342252652429, 0.009101973742812314, -0.044289227355437034, 0.08350727688169769, 0.012769912172438933, 0.02079252730543221, -0.028740138857026122, -0.12400316805665829, -0.14090138281180037, -0.1268351219286041, -0.08069621984532911, -0.06363578366605901, -0.0866786584429583, -0.17157394158803654, 0.0631049746635774, -0.00032136757347132005, 0.019799577502714143, 0.03580784413315129, 0.031456679774961485, -0.0020836197771800335, 0.024529274132282442, 0.028111552947202027, 0.05456697611330921, -0.04979682677797839, -0.05907825886990184, 0.04604493969700459, 0.04175887126336242, 0.10184540117972288, 0.09988135495616976, 0.05733511886364056, 0.016438892282473326, 0.00024060584526456848, -0.02274699425064702, -0.038967114050141985, -0.07617793888472825, -0.22371060880808105, -0.1461315571279742, -0.04498923801190895, -0.046765824167488854, 0.013182904128030477, -0.029114919268911146, -0.07284074841397117, 0.028375513926306863, -0.006048329116902996, -0.02739018631526369, -0.009921771932800126, 0.09677324634611377, 0.0894579284343648, 0.008835929950821348, -0.007129602333980216, 0.018400385210747838, 0.0032378071096500743, 0.029348133853504727, 0.02092361808581825, 0.0032879619901678312, 0.09621881060402274, 0.19553686319344823, 0.19282100036735225, 0.11548509635671192, 0.051565972024208664, -0.058800837455500174, -0.013775226271894392, -0.08842220266697985, -0.09035927431261492, -0.0651915615466086, -0.012976058564512125, 0.01928688048030096, 0.013035245471012464, 0.016231547139457052, 0.007111415045809445, -0.03446176415602409, 0.09689508417057097, 0.014795790649202778, -0.07498219862659554, 0.011673761874373405, 0.04842843217555575, 0.0017497473645904887, 0.04639647444428019, 0.023636756908065167, -0.012356393999380363, 0.0031434120543364264, 0.06548456005217894, -0.07763521348847145, 0.07599752796541563, 0.2312358025876723, 0.23028049581890095, 0.25253790867203146, 0.125031407620652, 0.06149217345722749, 0.05218506359156762, 0.016389813454380404, 0.04229639346977647, -0.013428352977679633, 0.019610677715597415, -0.010214225930356426, -0.0340311051952545, -0.0004827323135689777, -0.031699952862636556, 0.043907218851469865, 0.00807561721204873, 0.024952737945822225, 0.05089797848876601, -0.012750682113450547, 0.03672458951681807, 0.03263032220859268, 0.001658213236104139, -0.01804311702246348, -0.04168522601100435, 0.02553184564647343, -0.00021229332943967347, -0.025680618984314563, 0.03605497303407107, 0.10703645288831469, 0.14172354806117302, 0.24605327944254524, 0.2547475104000422, 0.1202379646261636, 0.1276192446722439, 0.09724639733033268, 0.11529404727139345, -0.08314968733957358, -0.03780157916345997, 0.009087845649199702, -0.049672105507205584, -0.04385505611388926, -0.00733992666906606, -0.008615392952653737, 0.04440288966600735, -0.013988902678443195, 0.06654677046797974, -0.06974231332830148, -0.03331782654723197, 0.08046926159749032, 0.02435764428368322, 0.04509277453995272, -0.026709457699376903, 0.0030877498328999733, -0.028386659194447935, -0.04157708953670731, -0.07149941600577484, -0.012798535521315544, 0.07134180598534914, 0.1787361462228066, 0.12365418323288804, 0.13844065098154362, 0.09429560849975684, 0.08139711449770465, 0.006443850668455299, -0.08920352267942974, 0.018219571956559315, -0.04054315661294413, -0.10533023076323539, 0.0035007280300359874, 0.0421868200972686, 0.012220010966526166, 0.07734519124450438, 0.020692646533075697, 0.028017359253704084, -0.03751900259769369, 0.0037691861894959358, 0.023085624147591077, 0.028969846537339132, 0.05158726934957206, -0.010058024106078629, 0.02960482139279353, 0.07124250791338739, -0.02149577366555673, -0.039211496398679956, -0.029523244476530323, 0.049589329945290424, 0.03447645032516644, -0.015251248008116801, 0.04432722902530399, 0.10147732056054773, 0.08844311292312965, 0.010601144461347242, 0.009669390604212234, -0.03639807250509718, -0.12946626229556776, -0.021109210522753274, 0.010998096380206131, 0.07699797456294824, 0.024557908268629178, 0.03169333370158087, 0.07374140365085703, -0.015467315473580047, 0.09927828801816603, 0.054008207321630676, 0.017244219292053185, -0.014088692916840178, -0.03992300840203641, -0.0571535033085289, -0.01154263175566277, 0.029164208005276852, -0.04845430336567206, -0.02719787775070632, -0.07129428245997783, -0.04117885153956334, -0.05389739974816357, -0.01668288587209158, -0.021319985206925525, 0.10524306852023199, 0.12746445531884487, 0.16159765384893893, 0.08365030187154186, 0.05289277686243972, -0.05202795950901279, 0.03468244896349863, 0.1480378601929842, -0.1100776425959315, 0.056527670504708, 0.025355369195319638, -0.029919036616571693, -0.03258462813016967, -0.022147991149679365, 0.01797687723247633, -0.001223721310053022, -0.007218916150017263, 0.028317678412619382, -0.018777987397105293, -0.027271816808527537, 0.011911847561105306, -0.02475132268551519, -0.014206045912555544, 0.044361428568560096, -0.01096657830523558, -0.0634706211167296, -0.10659299103133042, 0.001079834235378338, -0.03895004835040209, 0.057709280336411005, 0.09374624730301719, -0.007513295823729206, 0.0640856995461958, 0.01771430488236863, -0.019307090845450858, -0.0891439942436383, -0.037808819508851337, -0.062451272542777006, 0.01955478862468142, -0.024787113227867592, -0.03061853043288174, 0.055472788648293796, -0.03704276550702798, 0.009689012538728014, 0.03450457283131811, 0.005800263416136927, 0.01484218202434731, 0.002551657288306455, 0.026270029705536237, 0.0037318216389866567, -0.0064073432744756135, 0.04312879821422092, -0.03250543226740868, -0.046744270370390084, -0.060934429719378284, -0.0495000694062119, -0.011450903018206502, -0.011975424846148391, -0.0317716001938296, -0.005687966128586601, 0.01630634735708634, 0.04222627189330924, -0.036981769909727055, 0.028291212377593074, -0.02855593422954228, 0.007554513571284844, -0.02110861302074177, -0.05190874229991342, 0.06326014694792512, 0.00910614513523665, 0.007169614534142918, 0.034532030757724784, 0.0226491614397768, 0.0033016190052566254, -0.04336375942340708, -0.046109993447260744, -0.010390308076032567, -0.008892658557467235, -0.024177036080472235, -0.05140620505103332, 0.007050940560451537, -0.03022633978520046, -0.06207596781305557, -0.0030989979824455525, -0.02043301012323016, 0.0649262857558565, -0.005880039788853533, 0.014036292350127964, 0.024512876333269873, 0.018110078146765102, 0.015154480189676332, 0.0192697302463589, 0.0035203153811367415, -0.03421115395229787, -0.0833243088616603, 0.028543213446403416, -0.003529175827654739, -0.02636314291511174, -0.01743323120944763, -0.05986097186234348, 0.029666657951378097, -0.003670418419151168, 0.03153374013494858, 0.05013980763970406, -0.03143551839659314, 0.03109492379376004, 0.04369009362543278, 0.025443059629301924, 0.0013140905456203984, 0.07921314708100445, -0.06684542562541557, 0.02998195722483882, -0.0038366113023608544, -0.008473081752503326, 0.010990105353408665, -0.005715129042894052, -0.0007367272996018948, -0.013416382677371861, 0.04329332790238288, 0.0176962552893027, -0.0031984983384482487, 0.026739387062288556, 0.04998323301395351, -0.0014250602295584826, -0.0009537260307938458, 0.02585314250884612, 0.011260606416447856, 0.07215977198309721, 0.07781241127406216], [-0.006457870629611132, -0.007818117196849767, -0.009989108765407385, -0.008977659203490794, -0.014199768270167699, -0.0011088102223234, 0.04424562137783368, -0.019553533489790977, 0.02028402957086638, -0.029913958347804907, -0.0264625036572105, 0.007746446673777658, 0.02096495939993392, -0.00453840773332874, -0.047541141016129454, -0.02526867779143058, 0.03714958014120919, 0.010894727326161865, 0.026686216265603132, -0.010957140535990617, 0.005206745275539244, 0.0021187944860126327, 0.0031184256940287145, 0.024196328643410165, 0.01909091063289483, 0.03244803240474285, -0.052043063462858766, -0.05862112124326366, -0.07352952694085022, -0.03297305633913342, 0.02001638058124811, -0.01482952243849288, -0.056809978767729516, -0.02047762827671951, 0.034676639683138846, 0.018447316199876485, -0.020152665743836912, -0.022323350098927032, 0.032013758034165785, 0.011354502116875954, -0.022997774233398903, 0.01565579090242308, 0.03767057311336609, 0.03510566054907954, 0.044527145011146595, 0.011743998612740315, -0.019206854719510346, 0.024972638499000024, 0.05209665488956828, 0.02061984881340823, -0.019459341344997622, 0.05711769853858083, -0.007863150477882897, 0.03577816561823173, 0.005041590034687995, 0.0539385633141421, 0.03620478990747963, -0.03803339661675857, 0.004202856915758594, -0.0022750261003510676, 0.02459755492452776, 0.056876375523130254, 0.024966802178272147, -0.0677550136919607, -0.03873029778424998, 0.050852223515308145, -0.0021657160383476352, 0.0008105111348787408, 0.08585626650127624, 0.02044309951161586, 0.033635416332479996, -0.014950343388898455, 0.09664477733197677, 0.0463744597924177, -0.022022402146931023, 0.0023606692917683835, -0.0018760045905031903, -0.012388742766968634, 0.040974082431024225, -0.008580842099795202, 0.024539977075023058, 0.006362691239975056, -0.030599428758344246, -0.012608582274597355, 0.0211386213575185, -0.022030386306745735, -0.0011382238642334258, 0.0204650122214029, -0.013968209037848562, -0.01522910793540059, 0.07158291101940766, 0.01325748226022498, 0.006593647853794052, -0.018784763311234454, 0.023718874084108495, 0.09075850349903328, 0.040083707000083235, 0.10040077371824462, 0.10808706396834836, 0.13243343330017812, 0.0745680281795976, 0.11698162958229139, 0.0894780533683342, 0.13853173022212675, 0.057333349753681095, 0.001156103373166089, -0.010626385026172018, 0.050401543887798037, -0.018650498413213864, -0.0031866609714048724, 0.03822108337669097, -0.02956642271529606, -0.06153965204699515, 0.04169305393191858, -0.012299027479753406, -0.0093416543049555, -0.011117428069523557, 0.030078347135007656, 0.040272953435623544, 0.04029389279459456, 0.03038037452725711, 0.022658420033945505, -0.004748909792254483, 0.08983802221519888, 0.058441309456422105, 0.09092162153822024, 0.09553613782491294, 0.12160261793354245, 0.15103304474968024, 0.06365517347801589, 0.11259310604409675, 0.04620339168793387, 0.05192365270872207, -0.0034977009244853124, -0.009137512218251313, -0.02754030992880264, -0.04671073315613432, -0.011549044442113783, 0.006187709772090587, 0.01925534976127712, -0.009788371708521842, -0.04614473749887744, 0.015282731868126157, 0.03821289327123813, -0.03876680423538725, 0.017374030829489785, 0.08748532654247744, 0.08547083130645754, 0.054857916330840556, 0.015612883953931093, 0.08117080016920715, 0.08607520358750334, 0.09150398454049666, 0.0853846888310737, 0.0038189389262084246, -0.05591251176693985, -0.0046096053518507535, 0.010901052912498547, 0.027987900437035376, 0.06348926032438623, -0.05090477976141166, -0.0911966659204486, -0.020486397814655763, -0.08139496863920255, 0.012694625854611822, -0.0388472544464072, -0.019323725266495104, 0.030247711634211128, 0.016968676199156013, -0.042599983011468424, -0.02535376204999151, -0.022275651797027562, 0.010508272655774411, 0.040541835327024864, 0.09701686192599081, 0.11400357062814795, 0.027917737654426393, 0.0015111383053488753, 0.028417981828382417, 0.0564878275085079, -0.06936772013456212, -0.10638507731289072, -9.22771587446615e-06, 0.21235129541127465, 0.19255718463228463, 0.033784491213939505, 0.009045288661406558, 0.021694444290301946, -0.015705890371500674, -0.07329323189288699, -0.09272941217568695, -0.051865211233126346, -0.019421806713697858, -0.024709543931741608, -0.020662368300385068, 0.012661998484132292, 0.01033986799838369, 0.04366945233933199, 0.021549742092887157, 0.006798218540195499, -0.0257841175650294, -0.03252957320627156, 0.1211134152427404, -0.03926126416427632, 0.01201458282415764, -0.056006519879389115, -0.04083961753559476, -0.1034221083571764, -0.02803359062078666, 0.1614321562842318, 0.21822310555796312, 0.2742738648727361, 0.2857116987777133, 0.16577564150150706, 0.035600630069213594, -0.048862837586558676, -0.04177810681914274, -0.06775392204746356, -0.048328648600645084, -0.03627810868948925, 0.04975781100234659, -0.02041815060183583, -0.033537326490789436, -0.0006330655560374291, 0.047140404733484395, 0.004240162910684991, -0.030388181630829812, -0.020564438236933175, 0.006607828421087973, 0.056665113808553325, -0.048268541818330096, -0.07625716897858521, -0.14226820767880294, -0.0403097796877658, 0.012380598360671189, -0.0696230481119694, -0.027784344751419787, 0.06126757213970454, 0.09326222836316984, 0.21161944113139636, 0.16987552621872054, 0.012003967945712464, 0.03744368381306747, -0.08339854342863413, -0.1183777544340481, -0.08698776548229381, -0.0760300454550778, -0.05358543245779135, 0.010640582534104165, 0.04479073344778049, 0.027468774449161792, 0.011405533794072196, -0.019591331902956477, -0.016625560788039947, -0.011331588370749164, -0.03156444232893594, 0.013523972339976802, -0.06343183207394328, -0.08549689451308694, -0.10853244525632644, -0.06130641263673621, -0.10481717119122803, -0.08467575226913088, -0.0649496730006124, -0.08502079507633342, -0.01907649889267022, 0.027426085984643044, 0.06644002196196704, -0.0672015577382801, -0.12542902165803338, -0.031761548991683576, -0.21118839644073986, -0.22106026136587115, -0.153475279874018, -0.09531339337313498, -0.0954367673613864, 0.05472214709520778, -0.03538317540078892, -0.0031258082223462247, 0.002915959624844865, -0.009415126428765965, -0.03808726623688181, -0.05681872585015181, -0.04576364267605538, -0.03252310154081644, -0.022042647208454138, -0.10302288818853335, -0.14200465876205395, -0.19765124079860255, -0.1781122829120062, -0.12685416597112273, -0.028528801349661858, -0.14071590251604957, -0.08692674352364442, -0.09885550317501444, -0.035333539989570305, -0.21980054956308037, -0.19947923280153348, -0.1651968568567998, -0.21032023074721412, -0.33788532986738684, -0.2663781340563649, -0.17430027885631272, -0.08781274979324792, -0.00234146146406041, 0.022413667949617768, -0.018185207191920107, 0.0016848823237383276, 0.010552420840966857, 0.05201426167267102, -0.0316758541506639, -0.020192432817944556, -0.06363468152203351, -0.07210330962567023, -0.0802858053289795, -0.08135363793506441, -0.04411535669831217, 0.015702977705454983, -0.1110859057975407, -0.04252028389890398, -0.13383795738452686, -0.14533603904987524, -0.05729735387185141, -0.1548701160320998, -0.23801323554203502, -0.14322979297338315, -0.0804752458992983, -0.12883272322550113, -0.19853653254350928, -0.11301850820612235, -0.10074021871190915, 0.03647693969156368, -0.029077133261287542, -0.05378329492484251, -0.01177204073385707, 0.008372482028010006, 0.03901174412013375, -0.03985940876012077, -0.07113405755425768, 0.048335714105936525, -0.09067009847292065, -0.07605201398056868, -0.03836619028029376, -0.13604094030100328, -0.03990738630978451, -0.021470503782579368, 0.06604270796714343, -0.015349063125391117, -0.16032550480254232, -0.14144244607895393, -0.20143976604874353, -0.1802252139265099, -0.2012627004300043, -0.004402403565730911, 0.010577977755986281, -0.07709557241706771, -0.0023431656059330116, -0.06370818492363375, 0.01179379627629304, 0.036247491301247256, 0.0317120275395892, 0.03097951180645811, -0.01168419619128273, 0.06712789352753798, 0.026148675476333923, -0.04276288841408008, -0.02574945325024522, -0.0505120519296456, -0.053432523327285215, 0.015159426115863102, -0.06945020796921532, -0.08384976674969467, 0.06124190157137905, 0.12155294645278998, 0.17138491690811616, 0.22141347845043105, 0.08632544431535794, -0.027251597019109824, -0.12119484464861528, -0.09135086388877844, 0.020685393276789754, 0.06081237158730883, 0.16332762651909477, 0.0847096298916363, 0.021672081609184032, 0.009502595470470446, -0.017220419892134423, 0.01636652926864478, -0.003918802976082196, 0.024129927359956956, -0.017778398071483126, 0.030906090703678064, -0.05129672714751759, -0.02616768385668949, 0.04827180893445281, 0.06020851754352233, -0.01658203480894042, -0.06220879097465346, -0.07610929576602987, -0.06903907269944953, 0.06224245499192699, 0.18529421686261555, 0.3320963365449483, 0.3548163418842404, 0.19582567092782838, -0.001840843882575203, 0.05056553046204818, 0.03587087501115604, 0.06401382165727805, 0.05691097503044591, 0.060863237869457826, 0.006499020414742908, 0.11995283143246646, 0.04681817219095682, 0.01848132878077077, 0.013836247330487408, -0.03904216198343667, 0.05772418854095762, 0.013388194236671404, 0.02631913459546399, -0.009444959122874588, 0.001841161448237643, 0.02821458284967212, 0.048085925517608125, -0.027284582249994006, -0.022782576961137353, -0.03420003341896085, -0.09319196268835833, 0.13690178642165826, 0.19790186947161265, 0.16502405267867104, 0.16366593413766023, 0.0660161533315882, -0.08523528774517714, -0.20436390965877907, -0.105499267643689, 0.08779639378538423, 0.03457468007776928, 0.0398938924338305, -0.01478529798115659, -0.0038821952504704414, 0.041569200665814765, 0.057294930043148666, 0.06221873754803495, 0.037599642702102976, -0.04043687300476901, -0.042791761173577775, 0.05198417128940903, 0.008256802991912175, -0.002635456768041606, 0.007731039065939502, -0.029215478895144316, -0.02432187746761505, -0.06945148304908626, -0.06833376542712438, -0.12708796162135688, -0.08588821934471365, 0.01986079117089388, -0.01863704047456776, -0.14085878173029878, -0.17867526417224824, -0.25831456310895246, -0.21330373564787927, -0.20991965808577928, -0.048535197179146165, -0.012263962129333821, -0.035530063388993935, 0.017193807669134063, 0.07485131406323742, 0.16588553212113483, 0.1292123109912997, 0.05048054127414799, 0.061364712798348806, 0.01752938209848492, 0.019110135289111298, 0.0406733055048479, -0.02518237552751127, 0.0014294995076923897, 0.02604926124423411, 0.011474804509204163, 0.03947040726043864, 0.030589868457622477, -0.04248883449820361, -0.09039024720972515, -0.019805787320695125, -0.07789212447207709, -0.0505014761433426, -0.18151440986721495, -0.1454995005341582, -0.22952706223922292, -0.2870726226160312, -0.13470467201154046, -0.01213201273580937, 0.06150637288725552, 0.05020648372440933, 0.07870500347180685, 0.10505785726672127, 0.16442765069553225, 0.12053694170438117, 0.07318109572532412, 0.0924156220042698, 0.002717202853161551, 0.008803854732981838, 0.03745276766591721, -0.033742103808113995, -0.026259458204980463, 0.05108167435312996, -0.0018874607965324267, 0.09045809547809215, 0.16110731992601923, 0.11334788087272009, 0.076881466772067, 0.03787501371550122, 0.012670530933656858, -0.0996439127482877, -0.026674886635547117, -0.08540678072043674, -0.16355728639403883, -0.15575129700408327, 0.0389650689944186, 0.10418891273875573, 0.24322614802686626, 0.10922335900675759, 0.07186029913201117, 0.12901126694566487, 0.088292883074958, 0.09826459748490574, 0.09781063902163269, 0.032439978170451064, -0.001084342255238272, 0.013000738465895329, -0.0533059464730672, 0.06625459850063053, 0.0493386163092047, -0.021743298207966357, 0.033341379375321153, 0.08110427476904934, 0.11927100958383674, 0.14066497389143862, 0.17535076235327157, 0.11793191063580784, 0.14774391284648955, -0.013343484919028774, 0.03938680387546311, 0.0926633026991015, -0.012556596849539683, 0.050538243416673186, 0.04398253076304119, 0.0690738899881034, 0.17089212913165525, 0.12791809178825292, 0.07390091244004547, 0.11484966887013416, 0.09050678366763296, 0.13324673443389537, 0.060232140137740205, 0.04882464828322894, -0.051198899049908014, 0.005821153956237238, -0.0038032275206076292, 0.011093121076134195, 0.07045877318017761, 0.011166454996685584, -0.02081687613937756, 0.052960414324831555, 0.08839257322674836, 0.12414136658702367, 0.10345268176275697, 0.06280142644523556, 0.029802060471951112, -0.018254546548478405, 0.1354631139321843, 0.09565254007174193, 0.1375859224641818, 0.06446808398613091, 0.02837182546936599, 0.1882105159451261, 0.21089680098874106, -0.04878023252804742, 0.03167745851885844, 0.09914659917699166, 0.1081546451621028, 0.006425633897128757, 0.07967719776422999, 0.013017097918292109, -0.08502840481817936, 0.002612647808796495, -7.52361306937826e-05, 0.040050355810304014, 0.030402058247537757, -0.038994879885760184, -0.06007622035326047, 0.10719806840999967, 0.13793222779042633, 0.08898796580768735, 0.07540036309126938, 0.027725711909343462, 0.1295830487444684, 0.07744889532164109, 0.13405917131761816, 0.11565833746935605, 0.12268736256079402, 0.07371240709662727, 0.03793903938222006, 0.1805656733056014, 0.10927147051197399, -0.007236033016713254, 0.011727732762250594, 0.031761892188430015, -0.06319148663119387, 0.006007642449989573, 0.05669810050529024, 0.03844690611848056, -0.007869436186293148, -0.013136052462763604, 0.015050062325783807, -0.016518932572682686, -0.024383378682560176, -0.04015121960559381, 0.04813197572391179, 0.06803861413190138, 0.11828825843849816, 0.06841097991312618, 0.0010884153244211734, 0.016155563300602492, 0.020120856905633415, -0.08713559796270029, -0.14987172118603806, -0.11110525363899541, -0.11682913861903302, -0.0994047558687315, -0.03211681848610078, -0.011527350612990588, -0.02136956909714894, -0.14365619806854263, -0.0545934158496653, 0.006033541914861057, -0.03002973656227487, -0.027212996680048642, 0.06427614560142206, -0.05379001671629065, 0.00031868776879717957, -0.001479188958870079, 0.03696905661524158, 0.007542383278376302, 0.014739815455137854, -0.03268610987557781, 0.06585026172278585, 0.10959962402294453, 0.052833598864537326, 0.08421191117866997, 0.008462243270565424, 0.021925712475697513, -0.03298039988772588, -0.08297995262331168, -0.24655769366594155, -0.22760947480769977, -0.22102691139498773, -0.2716638101353519, -0.23178760024450987, -0.0985385812715319, -0.0388925396858887, -0.056639400414781056, 0.00812383828854796, -0.04843596836532836, 0.041630527531176645, -0.019756174278151798, 0.0320966977189573, 0.033930286672801825, -0.025166585157060904, 0.017059591491372494, -0.026754560002279503, 0.022971955527775673, 0.022292422754897345, -0.0018281624964266783, 0.04585431563019914, 0.10534212560678226, 0.07449183604492046, 0.011930259381945786, 0.064545322835626, -0.02162952022477376, -0.08719934927727885, 0.0030350580573060724, 0.08054745442306147, 0.03130496507091688, -0.12992250086002335, -0.2068932913339123, -0.18990450512435805, -0.1381829923856002, -0.12182554120907498, -0.009856480626070769, 0.03718073869407523, 0.09796102447897853, 0.004570086781467545, 0.014746570851043079, -0.01933214145422829, 0.0723784230260751, -0.04937401314848303, -0.001994322035576358, 0.036784670668885806, 0.040188252606290255, 0.034147534263176266, -0.029427733488739307, 0.077896267124428, -0.005514455623344595, 0.02063065880010264, 0.05756325521985707, 0.004470317749383455, -0.0031290279630111686, 0.017602163429774904, 0.035546492284074395, 0.02769983410373555, 0.009378195747776381, 0.004931135880992693, -0.032793198384547216, -0.02096991654886013, -0.01130340974322742, 0.02474487350923174, 0.007112617421495158, 0.05515132466166465, -0.01818762620870431, 0.012582580617121404, -0.019941179214725758, -0.040472939017948094, -0.03525176506587418, 0.017712930901210792, 0.030273493770900904, 0.02233156185753913, -0.008049148042114901, -0.03255613653222184, -0.007040616291843592, 0.02692371843642123, 0.030058705821336424, -0.00040079016254173527, 0.04503195792163103, -0.04127105276518221, -0.01819727739230472, -0.041197321757296845, 0.05571187241571116, 0.05093569555228898, -0.004204720646038337, -0.1252681104300907, 0.0016386203039165281, -0.006119652561214652, -0.010465421278023681, 0.026640117017378378, 0.049746185231754364, -0.010872734475432532, 0.0570540336863002, 0.01648151023461333, 0.07018112042025008, -0.009696032064903898, 0.007483496236524335, -0.00043236120439424554, -0.06705866801116556, 0.038846202506390135, 0.02629060826589322, 0.007302766143086834, 0.0005992476227962017, 0.03000232945066339, 0.01277444405693122, -0.008012719320307915, -0.07035796544551505, -0.03420270091290814, 0.03212404182090767, -0.05118222133834921, 0.011529383306009482, 0.00586235396032469, 0.020129648041834664, 0.05481142721525318, 0.03802732602362823, -0.025196312675490197, -0.047993115559144546, -0.01639730048139743, 0.021576211659950315, -0.03801132464488475, 0.004684058857804953, 0.016957374142219924, -0.008523664165732504, -0.0002298291435837993, -0.049083810017093873, -0.02791187405798022, -0.03578774620710675, 0.04918777247090745], [-0.002141302597678419, -0.042198051000657974, -0.018452734110415057, -0.005215389447033636, 0.030139581942782108, -0.03579807491455327, -0.009358289336226107, -0.04972599483989183, 6.84394897589515e-05, 0.015731694759652793, 0.006594232784975721, -0.00869903102952199, -0.02669532562717142, -0.019631315952399142, -0.048466952639888664, 0.001326440076661273, 0.010041514425843107, -0.003275321450840206, -0.003375501602436631, -0.02454041040080399, -0.02939183016477412, 0.013365889221915781, -0.03146947729583484, -0.028561578696175222, -0.03149659392714293, -0.001458757136016895, 0.013260166827921216, -0.02487701362306016, 0.028960193180562026, 0.04871838067638787, -0.10337232755663188, 0.0075543516365113705, 0.04396436471342696, 0.051243631968532405, -0.0038168631691872057, -0.03367234771221622, -0.014588118926104773, 0.04066379375875762, 0.07730350242163364, -0.029529829234197395, -0.002463513062594607, 0.029539407369940027, 0.025649254826715907, -0.01340704281582428, -0.012588922693944904, -0.032618381002610775, 0.0015292174380480625, 0.028268855293284174, 0.030754819727425723, 0.027591154429451686, -0.05966584717481352, -0.028441823652881327, -0.06220083590131649, -0.020459957547668228, 0.009011463033184747, 0.011725914800340279, 0.06780662056164206, -0.10762389267859215, 0.07171816834210595, -0.010966291957840052, 0.05502393188480966, 0.016698162894440628, -0.022744536801249268, 0.02615546977243309, -0.03662169919556537, -0.029255354577401044, 0.011998361995044391, 0.027629173913865913, 0.0003677256059444158, -0.059647194285758945, -0.011686141616103181, 0.016190861256818408, -0.033174463153900144, -0.00423530564716309, 0.0247179367887594, -0.01680560134469561, 0.07352445781647712, -0.009944334658063545, 0.060013886868937244, -0.02088602202210386, -0.07141075118104259, 0.03314292424852163, -0.02182603026991094, 0.019142753791765145, -0.100650862613626, 0.027186120435414834, -0.04376726804904953, -0.08154498710056446, 0.04318494768133731, -0.04286056228059291, -0.04326061963932202, -0.005429536409980755, -0.006469960062525305, -0.020913749311726727, 0.049471991476101894, -0.03187121671555154, 0.009267434174071006, -0.06241194589559444, -0.031497763160356435, 0.020086894550461632, 0.02575053705949784, 0.01326354326928393, 0.04912521569064305, 0.1004204361473089, 0.011696380990431703, 0.008373749299518073, 0.03056219681005408, 0.0059209160254603856, -0.06640866028477048, -0.028885358602659533, -0.01843782468646891, -0.02802912487577164, -0.0007971150935794, 0.00922461328307769, -0.022999199504370467, 0.032259601355691926, -0.008978104136123894, -0.0016779187028948316, -0.054959843655958115, -0.015229208514020168, -0.05059714381953561, 0.0012397537902955316, -0.006595178838717731, -0.06297516228730546, -0.08587157602160672, -0.01973831600921631, -0.029883951680506428, 0.036422350082018794, -0.009395913341267718, -0.00393624552297834, 0.011956732678316838, 0.002760155598284146, 0.04390353863994539, 0.005836789685275472, -0.0019677823628746092, -0.07603963333285775, 0.0072807281122766136, -0.004754393882121568, 0.03760472315636196, -0.02298497225858666, -0.05202461606754811, -0.0849227139695694, 0.0043797484528993345, -0.019685373383749656, 0.003987374270572575, -0.017797578114775368, -0.07232413107229406, 0.002652773022093758, -0.029861819029364113, 0.008146283776381014, -0.018221393720367702, -0.031370190194239034, -0.021147745633810028, -0.13631451126825822, -0.13173596306564325, -0.1936253511833064, -0.0660096860950083, -0.10231695359924566, -0.006140113091175228, 0.002558501167028533, -0.058311415850184276, -0.02612389353296751, 0.08705167318744697, 0.12552393153799363, 0.0037344380265019643, 0.009158899512625045, -0.01381203859497188, -0.011588974845756593, 0.011339628562638697, -0.03952974464230968, 0.02114537977827463, 0.033798846884614625, -0.036924252090223014, -0.040188962272110836, -0.08870394050114701, -0.12819798501670582, -0.102922159729868, -0.032706053174934864, -0.006904665533733265, -0.08372279226674888, -0.1135948128288731, -0.2267396884786675, -0.1957426568583355, -0.18742082010622557, -0.2609501888325325, -0.16680024544593203, -0.07441362206584179, -0.04380139703143377, -0.11066793316410875, 0.044604278202493235, 0.08477281168657619, 0.058387905017726796, 0.02987422147890268, 0.012199709459122014, 0.022913209985425967, 0.019330411444459784, 0.02102277528636032, 0.007861926550845784, 0.03409250355772131, -0.0023227386305925994, -0.011843687644985067, 0.0715717982096196, -0.09037044837698832, -0.07400315955112198, -0.09573105784689026, -0.1596948422374229, -0.13820967890237532, -0.17853399376910734, -0.22349209950890808, -0.23371932767107487, -0.21583857099489184, -0.25285228931746134, -0.11018786761122908, -0.16611643854751887, -0.031862770381315894, -0.13904889472341037, 0.004231871068303311, 0.0006059664667739934, 0.12270613202626136, 0.11466735065551317, 0.034531717805963584, -0.06699609314644342, -0.025046848101430996, -0.0503718504354944, -0.024158785847065566, -0.0026062857157790422, 0.02407081067869869, 0.016912986044106636, 0.01590094943853914, -0.061469435286379305, -0.045719455324887484, -0.12866075385270398, -0.12768660544357027, -0.07316622542611743, -0.11912759854667167, -0.2266599078419275, -0.17586982560886696, -0.1263132528030308, -0.08827459165529615, -0.154067782031315, -0.058669128510233405, -0.16901696211420258, -0.18407461421365062, -0.07474709498412581, -0.08192202616820336, -0.08181349321965316, 0.008243857495955954, -6.025395539946117e-05, 0.012032273005672015, -0.0018198969609937471, 0.023465446612447607, 0.007287377671297276, -0.020755743054446902, 0.037279227441717855, -0.008300628733927815, -0.02899524366939507, -0.025083303113144165, -0.07686063462140676, -0.023322508087107847, -0.11744217519581333, -0.07754332998420643, -0.06876686625543511, -0.1910147162525616, -0.18286821265077152, -0.1026786881876999, -0.04512025795603655, -0.11002524083830334, -0.10541593515660007, -0.044136125041053395, -0.21181904694853088, -0.15929599744947567, -0.1449932570572931, -0.1600324658731849, -0.14226838921408055, -0.09325529754668968, -0.05922496599399424, -0.046895895299442256, 0.013336709514755102, 0.0261688712116646, -0.05502357615403214, -0.028729968535085432, -0.003889993656986129, -0.06457073124966978, -0.04731195577874553, -0.02401582550134291, -0.016008712295853305, -0.03887335516082177, 0.03485621095909133, -0.02323920112701233, 0.03271744237836947, -0.07623201052716248, 0.028783176333257637, 0.037344180492440746, 0.06793776778825861, -0.01888711705317824, -0.11117637697307112, -0.10149474591531786, -0.14788027589569794, -0.13886384335812, -0.2533247495963923, -0.19579981769223617, -0.09776830722907057, -0.06595745354060743, -0.04793543871872773, 0.012027138544114944, -0.07705219035344515, 0.028846456170719917, 0.008210249792219593, -0.023019428486619406, -0.022336236637475047, 0.033823885587228916, -0.00416752667638655, -0.04665073246291704, 0.0010086235624891717, -0.026275185929146627, 0.02822863723980091, 0.07994493185271458, 0.1713765261225991, 0.08888256182340132, 0.1062222328519298, 0.09686525426145365, 0.013125269150551316, 0.00196108827362039, -0.038016972348510314, 0.001422954119936449, -0.06350244367318904, -0.1774770013594964, -0.1951993576865951, -0.1109345070604294, -0.026608172253971323, -0.04740239618811017, 0.0018016486753947441, 0.020134143200474186, -0.009654871188407549, 0.01940220992522709, 0.07354251545350947, 0.020053457861465354, 0.021298285470966315, -0.015675984651661, -0.04981407517454081, -0.003294982895826323, 0.0010656671092557739, 0.03531368519225399, 0.11784159452912495, 0.16966691172949352, 0.1452261935010448, 0.20213448630212563, 0.12127083529252249, 0.01239621942996394, 0.0632292937445512, 0.07912247657040951, -0.04325341299668704, 0.08282972131996845, 0.014569428329511918, -0.06832694885993347, -0.11776975488286652, -0.11413705296263373, 0.04080285055077666, -0.001681104172940713, -0.014847680244241936, 0.03778448291948743, -0.05121764871948237, 0.0037422781599898503, 0.024462683250921793, 0.016416078852634942, -0.062111998088796284, 0.021819504282299538, -0.042790665995712414, 0.03865833465521496, 0.04835339999337645, 0.09387367568704458, 0.19566305358885086, 0.20878205965162297, 0.2165346941458197, 0.22267498705997452, 0.19712469398097573, 0.10725275613837515, 0.12453952450110574, 0.1080901261119355, 0.11233939206598484, 0.15577121862485255, 0.021759296062181965, -0.01962449005210829, -0.08161681427943751, -0.004097268759199347, 0.10217998931714989, 0.018148289715488767, 0.013965286637621614, -0.0965736838112703, -0.010155571801406763, -0.010721547380922807, -0.0428462917027241, -0.011712316096065215, 0.019473856318377007, 0.014883849756630927, 0.025793577134918987, 0.04152692997377278, 0.08378167123444687, 0.2512097859387089, 0.19491098026332562, 0.1650189128229657, 0.11072024613126434, 0.16138964820675145, 0.13442365375081927, 0.020335952641160462, 0.15131360922691592, 0.16029434243645627, 0.09675435046623804, 0.10233123059089544, 0.09024159802590592, 0.017354406722445107, 0.027889951879830135, 0.07826869675013787, 0.09553511473919027, -0.0038081351507289266, -0.021992387654901607, 0.026041337947899514, 0.01751704257781863, -0.047508182106746476, -0.04549365698260853, -0.007800202239793556, -0.07702822509483284, 0.03960489595995558, -0.04612630735550148, 0.025290654587253467, 0.04059821635229132, 0.15650133948533948, 0.16542019915000578, 0.15164449195921886, 0.1505341744874582, 0.06170951631052228, -0.02708654584282424, 0.0633824960386036, 0.17830941322255864, 0.1157006909956559, 0.1259169584776903, 0.09750336608188512, 0.02160797083725876, 0.08134064226630913, 0.00977616642079011, 0.03371824348483005, 0.07117845015671646, 0.11882134916230835, -0.055977910685417256, -0.030079444200613696, 0.024235215294311233, 0.0279544181101309, -0.04556561581300769, 0.03034147495304789, 0.0936681284877684, -0.08374572116429772, -0.0053917626128183495, 0.04520624158048727, 0.033706261471074916, 0.02716028366773872, 0.11919732895307564, 0.14278286236897147, 0.11789324881776819, 0.05141740407723471, 0.030484774964730954, 0.10890716695265668, 0.12250593224314446, 0.08640417639542165, 0.07126811810214365, 0.020148613239694704, -0.08504249483754872, 0.015624651707375647, 0.005010555876605368, -0.010760317953683044, -0.043683127049792735, 0.028768543864124273, 0.028245388409276515, -0.023003514536365992, -0.0020619471707161163, -0.08163779397209338, -0.004878046952784279, 0.029718524853089998, 0.039845476660512955, 0.037596573331853206, 0.022765941578600662, 0.005510947554367675, -0.04749036029520213, -0.04556428097375477, 0.1080775791943973, 0.05938525876860178, 0.10012140613013923, -0.007471700575000437, -0.0022996958539030898, 0.22729717410313152, 0.22083557861479058, 0.19332347742360032, 0.11937924115076486, 0.0800644444646536, 0.008592364612355661, 0.03937489467949732, -0.06422015836124835, -0.08740979038359437, -0.09447634075338782, -0.085179250930325, -0.009736990942608124, -0.05532431340980718, -0.11359679787961403, 0.07212091759049871, -0.003080003103909861, 0.005573626372817337, 0.0024363396780236373, -0.06321446019389423, 0.07419749691050831, -0.04440300792365727, -0.11736094326072614, -0.17203918296467507, -0.12715061237926556, 0.05302719276059877, 0.0464863597965477, 0.05888301082820781, 0.04941785893907816, 0.045835714793572985, 0.06686042263562106, 0.043022868000917806, 0.09620732834910117, 0.03077950194547905, 0.009030278506714676, -0.10188636021907017, -0.06796699577483414, -0.08769520565031204, -0.14353223284783484, -0.19092503759138466, -0.05138459750481181, -0.009118526657088474, -0.01807966774479011, 0.03727495677047171, -0.027897451901179662, 0.03727180317276945, 0.06503054782079777, -0.015821327045316365, -0.029097271185530026, -0.10508705692168084, -0.116384414651408, -0.2263895940451978, -0.21340130042858974, -0.1211368626919774, -0.03464126686198011, -0.005382090978374744, -0.05896935702741327, -0.02152041993155682, -0.0018465509885774844, 0.04458774545292084, 0.040928790985459554, -0.003316727328934366, 0.005392122511617057, -0.005676935631660445, -0.1330707928490709, -0.13104008794042635, -0.06963168479871809, -0.05488718729812682, -0.07832103363982364, -0.01771878407540827, -0.0813056473437247, 0.02910387807018676, 0.04870905885268379, -0.053375579755693334, -0.015495007617243328, -0.035145566901063886, -0.05185850000011049, -0.13883145096506722, -0.16745024747242737, -0.2115803228349166, -0.1914499693558412, -0.1444309490823357, -0.078466153745198, -0.08556208093981998, -0.012592907032920687, -0.008640386816313798, -0.11927213678262996, -0.03593915177467774, -0.0652002477888924, -0.07711627180837516, -0.03407772944308225, -0.06371904772727499, -0.12572778099164614, -0.1442478760831402, -0.06584670977427318, -0.0595798059256574, -0.06929229042433727, 0.026060671850970867, -0.011552679468450363, 0.026384312623768377, 0.004752676422759192, 0.024684312862586575, -0.0015709711200156528, 0.0033176078895187193, -0.019118209580127218, -0.03766321185323057, -0.19933504712190508, -0.229774809394787, -0.1936359460832794, -0.0750501977391081, -0.05869713756196897, -0.026818666226411558, -0.025843176762314266, -0.05256469247769755, -0.029435242516451587, -0.004333019240221006, -0.041711471207988786, -0.02477917948742196, -0.04272316318940604, -0.04958432752743095, -0.045595892034124584, -0.0696474424699466, -0.048717544192158097, -0.04418868795254022, -0.052790909887358434, -0.020952158215076094, -0.03942442300576082, -0.02040766107711684, 0.020873954230942345, 0.008038337584670324, -0.009259448879275715, 0.010147220079273269, 0.0523084449293189, -0.07368446508991464, -0.07224633185456442, -0.15057034445253906, -0.1324176416497803, -0.1362415519527523, -0.06862074941368725, -0.08074651718462084, -0.12456902443494616, -0.12651565975603077, 0.019307514315882606, 0.0460997527240809, 0.032089459770843154, 0.025446707994453432, 0.05395721448467214, 0.024341698082702035, -0.04099830093116595, -0.05719717911336836, 0.018225061314461694, 0.00785767741058404, 0.028361286696682725, 0.004551222683635238, 0.016514263575871053, -0.0055441160112344985, -0.024618203705110964, 0.029037860979261094, -0.013175799261667743, -0.009609670776761822, -0.01789611091329265, -0.050462390343018616, -0.06688835617573212, -0.06522997910398771, -0.07399263887336267, -0.008941113441586013, -0.06594791593615609, -0.019718877876517715, -0.11049211905284466, -0.16908479916701016, -0.09886289642788577, -0.10135341542074197, -0.11072900293707047, -0.05332336175446332, 0.08836686448474304, -0.013711193131715307, 0.009284985319263556, 0.0247974603185554, 0.026704095719371327, 0.01441784974721225, -0.006457361972862167, 0.003095829205909502, 0.02681599453531715, 0.008493518793000658, 0.009506924435269699, 0.037522022892472334, -0.025269409895629705, 0.00832683942823479, -0.010014686691007114, -0.027794852780321733, -0.03184706913433555, 0.00117552588606087, -0.011465911116257022, -0.04338881511799557, -0.005123533543151601, -0.03188110571625409, -0.020381839022782174, -0.1206079506336872, -0.1645386276127511, -0.11628970939401002, -0.20898920910918847, -0.039503104638316716, -0.016338520295788018, 0.05115769248689921, -0.04286251555700096, 0.007142619215755523, -0.04213864012369063, -0.05178485547396676, -0.007438226836843482, 0.04339825461311551, -0.008685374704542679, 0.031979900039148815, 0.0851724089319588, -0.048398009508331376, 0.04727294261627375, -0.07186761526222309, 0.028329083604826142, -0.004966629067434322, 0.02908589015199787, -0.0363833120460644, -0.04050662326964053, -0.010469738334701169, -0.04609810648935051, -0.07089855304742017, -0.0529787849505302, -0.09780737859270273, -0.04559045877133342, -0.14229637367469142, -0.050932422692712184, -0.04867962536524619, -0.0021428661674539815, -0.005189950519981886, -0.041383695719395396, -0.011495801555643009, -0.05480785541897713, 0.02342191476744833, -0.004874360273300496, -0.018292074990983332, 0.057411166013108125, -0.0037974876159151657, 0.024567451519185327, -0.010290926705316115, -0.004038546848935804, 0.009865593558766192, 0.02151184368202922, 0.07066722846100863, -0.007168836608682604, -0.0472776670620416, -0.03109445051567678, -0.008832257447817201, 0.017083851200037456, -0.0863248624384696, -0.06837167020018993, -0.0007669586707165449, -0.040870142736782536, -0.02087129379687099, 0.04269157763487123, 0.021349709310824014, 0.010128269544471545, -0.05445548702220083, -0.009599869113889076, -0.02760630382045751, -0.005115836164508259, -0.005346057821994077, 0.015589029285368853, -0.039610605188885525, 0.04548301922663083, 0.007458868284614817, -0.05192814112493942, 0.025436073382785262, 0.056031442301515896, -0.04501283658228568, -0.011298261423867462, -0.026095868710645783, 0.037704102315933394, 0.03664173287427402, 0.010472523201432996, 0.02782737953296453, 0.06090115170370054, -0.06266508639708344, -0.0348934554290496, -0.0608302809278437, 0.0478191419409332, 0.0031573880653741485, 0.017759987759057988, 0.013406060802834373, 0.033451171142704114, 0.002275747028545625, -0.023268523855672216, -0.011251600271760911, -0.02823762352194999, -0.020868411073913056, -0.046396767870967776, 0.03249352133045315, -0.03988340519999345, -0.010798760291268793, 0.027374038528959126], [0.012386992448577664, -0.011558258793227569, 0.006897956729030835, -0.007948097587814243, 0.013366489002681732, 0.03588613687060755, -0.033850162012744316, 0.0009317282659154579, -0.04405558828055577, -0.020498796539020148, -0.016119693001795794, -0.003657030303262634, -0.03871220595704807, -0.08533569161506857, 0.04158287922940336, -0.006758009602935656, 0.012428117816162496, -0.0016891626530187007, 0.06258886056414749, -0.005056823137403888, -0.01836296654755007, 0.06167673163117851, 0.04400175614947423, 0.016238753434857013, 0.021224467498553706, -0.009724789734741057, -0.009335475526102947, 0.025744620926913674, 0.032787440024226754, -0.045593179389973745, -0.03150047643009459, 0.00032446814510709074, -0.03716466914491766, 0.023247503357258763, 0.024235773864429135, -0.036213250065757284, 0.05776854947913585, -0.018364188221385275, -0.03047456426288665, 0.02541311119052175, -0.01586847307941497, 0.035314556742006384, 0.035188167287578134, -0.022946758946291154, 0.025096859021708898, -0.02833584830183592, -0.039045537950427624, -0.011819793990720919, 0.0009032890177622593, 0.01793333203991086, -0.02231300403797426, -0.04331957109817613, -0.051395276428429115, 0.06206754710857266, -0.00857314612349087, -0.012619635038127325, -0.003159752283863714, -0.0013890966249590314, 0.05204121591188675, -0.033534865271339157, -0.005872958884370622, -0.009755003222135017, 0.037269413165749554, 0.034010996234358305, -0.10445613533006598, -0.03684285605650203, 0.061134924013085234, -0.0009463972119667127, 0.026359952572035304, 0.02316719753699058, -0.029370864017575053, 0.03172344237512716, 0.023590708363270818, -0.04880314832854734, 0.08478478616452403, 0.03625091597716705, -0.01742153686300583, -0.02123372812281742, -0.04280720983678804, -0.021291919838818438, 0.005571562620468088, 0.04387051712775171, -0.02653783836463117, 0.05547853679907796, 0.006731551660040096, -0.006785485836318568, -0.029219718726840288, -0.03558124021896104, 0.016375928196807454, -0.034978486999029994, 0.04200361134654327, -0.020327072561239362, -0.05767002892528671, -0.057326922018530936, -0.11577084812050266, 0.017668404341731912, -0.003914965037581154, 0.013259316574074965, 0.035476334391753905, 0.03922305683165821, -0.061232059981448345, -0.017894199076999705, -0.042905481073610974, -0.08820201752996515, -0.04198303446668447, -0.023416115444220655, 0.041114154941854726, -0.009494411712575498, -0.01828811245338804, 0.03717323749239206, -0.04670516996989892, -0.020832794682921416, -0.014227583316017218, -0.04964411101047846, 0.03776461638901579, -0.03496745301041194, -0.025381907442838556, 0.028253025281405542, -0.012780350311532272, -0.12126603111131873, -0.0023708212198953996, 0.001049099244248078, -0.021938843647116752, -0.03040237714535637, 0.08529870607721238, 0.07336212598890099, -0.030705431215787587, -0.053589296590467884, 0.051504588337323846, 0.10852279584956591, -0.007366574978085474, 0.03578519836227616, -0.00887198211715003, 0.0006745459139636908, 0.043785749992998904, -0.008624574322610304, 0.022091229507735143, 0.012584223323339406, 0.012109579728140397, 0.015238130938901804, 0.02874067683115643, 0.07878218352641997, -0.04061372490974555, -0.017700619232808523, -0.09303179848758396, -0.027285027005150952, 0.003942351454852551, 0.022899732611219824, -0.0385740347248533, -0.04857276185242482, -0.06770931669458494, -0.016392533602985013, 0.12282776253966249, 0.08195969605361775, -0.043857354529082654, 0.10454689560858438, 0.10545763410275448, 0.12733248844420475, 0.05157430179537921, 0.07738041375094046, 0.07292084469124473, 0.07830481259096565, 0.10669574814543938, 0.06464409496291755, 0.03154705919325312, -0.04341406101133464, -0.0012433326501261346, -0.011770488437840867, 0.06927804907334154, 0.037340544363514444, 0.019382413497666024, 0.0037622923011770273, -0.037476459608139716, 0.047224996138421564, -0.06823843843095571, 0.007558790923734279, -0.08346338034631068, -0.07346571548140003, -0.09795787108224237, -0.053773578793317046, 0.007244538681334688, 0.011065490248226114, -0.10306724584503402, -0.05539729543202124, -0.022670693242712515, 0.006440050640426489, 0.07721741430044461, 0.13283299294364556, 0.14115684314905208, 0.09706381241675166, 0.05213269531056539, -0.002486316657989933, 0.023989104546394528, -0.015526960621964798, -0.03471467479756744, -0.0025498133363738556, -0.08190024469301325, 0.0014783388129699735, -0.03867530306146943, 0.037205838314947844, 0.011080574823469346, 0.0075881999623538116, -0.07532000042191501, 0.0028247164993998163, -0.028014556609312548, -0.11270287886755881, -0.15771566823527697, -0.10066137163945292, -0.03152232966782786, -0.0731511312363228, -0.07774832764682825, -0.1410179274988884, -0.04013108044021134, -0.05690630870907032, 0.022599810369346236, 0.05463883706730157, 0.09549507181943795, 0.13011755319658222, 0.06334607452951947, -0.02014446640595869, -0.04140966645518301, -0.029338223263392856, 0.007043945907950159, -0.05753106494721975, 0.06537826952401993, 0.02818021126125468, -0.025894765813221397, -0.03852954280083219, 0.03794040200427127, 0.007094081168161501, -0.033041580772320625, -0.059210219496647995, -0.04384492049283241, -0.055214635873391885, -0.18945465807411258, -0.1607754823442254, -0.08786875877365716, -0.007699255659021172, -0.07489865432523911, -0.07464073937773053, -0.0903201172042878, -0.09814767394320593, 0.07532634932863702, -0.02909176237078084, 0.04167993645583186, 0.050027543448149595, -0.06577458541918038, 0.009717129102085548, 0.01572628968570679, -0.022094951844844498, -0.02062055380606312, -0.06635910819718681, -0.013217076608040104, 0.08405750857024942, -0.006557728022666249, 0.05642911221152306, -0.006431033246787989, 0.005337552102032022, -0.027324934635550503, -0.004434218960704962, -0.061380280494654875, -0.0895210681192594, -0.16712139758980807, -0.1228508484075596, -0.04639663604596603, -0.11386537228487285, -0.06110031259322189, -0.07022593648495377, -0.10773050516721824, -0.154136487986724, -0.06958228040663121, -0.06858068019852152, -0.05375135767420376, 0.006120815617706481, -0.03395281967001023, -0.04925931620406576, 0.030531330505492234, 0.04306462780319238, -0.036715981749155226, -0.017322232409300246, -0.020562575606450532, 0.03060451820467772, -0.012603827069340118, 0.016656630987269033, -0.015235419891360612, -0.026811160501779837, -0.029390558619263513, -0.07772112429872946, -0.08554849058309706, -0.09846453488232239, -0.18871980503610872, -0.16645865294736872, -0.0918966958783355, -0.1270649817958949, 0.08991816582067375, 0.12757192004840615, -0.0058838041124313414, -0.1313573921176004, -0.06357445537732398, -0.06619196344028297, -0.014012076506010347, -0.0036305255678767963, -0.05748649168310598, 0.03867577911058264, 0.012264576802586101, -0.019530667684863192, -0.06574413991197778, -0.035494536795284505, 0.03417730871656735, 0.015457570229570325, 0.021268645538151117, -0.11263173807061325, 0.006815687303588905, -0.05707806118864496, 0.022472377511375777, -0.03240102074513418, -0.04617968370806434, -0.07070391449584974, -0.16861227776749635, -0.21464938055632518, -0.0775395707730855, -0.0663774432244636, 0.09550307557494846, -0.01247815085964896, -0.05661693354777056, -0.06377721638806966, -0.14316068948168467, -0.09434006147489976, -0.04305237182183692, -0.03450411064782695, -0.06971108182228354, 0.002225099190137024, -0.0793763814140286, 0.09790174449362322, 0.005749091610098246, 0.010711191680494489, -0.0038602396636143142, -0.022652159233427796, 0.005961466849442082, -0.01401449041089802, -0.03929498474290689, -0.06578060938240007, -0.06167000446927922, -0.021682351502743776, -0.05589786252452414, -0.16109564682915806, -0.186735446126355, -0.2581984503791096, -0.16539448604963067, -0.03558486777103249, 0.1785195401348014, 0.09827056136739128, -0.05087493064637591, -0.1265158794746806, -0.13585310288225155, -0.1399136533999545, -0.033858535452683934, -0.01673171755112107, -0.043647010227745725, -0.03515821138369346, -0.04203574561505477, -0.004254442808590654, -0.01779698321315713, -0.04976013202919117, 0.050515723169196565, -0.04419433008769775, -0.06304813567410651, -0.058921881277552116, -0.04268926665904528, -0.0008613900122231504, 0.039545068831331215, -0.10122711465507843, -0.12132716075155399, -0.10948871710660317, -0.2551770647807487, -0.22052115824094728, -0.16498602195530515, 0.06094230773582335, 0.17268747061775686, 0.03215540562932064, -0.22488435077499463, -0.22835405091653616, -0.1790361164032666, -0.13201829259029466, -0.00524393036100953, -0.07446309040728835, -0.0885469275344744, -0.0425344829243168, -0.03270991157216596, -0.03430294418927965, -0.06668493731710182, -0.036048962240283804, -0.021188608635651852, -0.005994715654800691, -0.012086408923682474, 0.0029838924397557064, -0.009370190038125387, -0.027048431968478483, -0.00038661894295170357, -0.03784151959602617, -0.06613863176224112, -0.10382027512512323, -0.21629164477001991, -0.16661898578703213, -0.10974214911679128, 0.21605606990807663, 0.15849761068960255, -0.03860050732110778, -0.24425014013711566, -0.28626014887405205, -0.16151332810291893, -0.17697432443209163, -0.1399690253298052, -0.09260206048566416, -0.05082410772960179, -0.0502670223635043, 0.012561598811445552, -0.036762182666451045, -0.03541666925693218, -0.06624896472591206, 0.007055914008812868, -0.010101859515327397, 0.051624337847331316, -0.03943125878927519, -0.0227557101589517, -0.04728065054662048, -0.023352731364457573, -0.10434277383054166, -0.030017474919693584, -0.0992331710291556, -0.16200062718043182, -0.16402813229729019, 0.04226320301099038, 0.2571468272449344, 0.18619196895315393, -0.09879665381833093, -0.26587129507244855, -0.3198254574402157, -0.2043274765826775, -0.173477099659066, -0.038396446690631636, -0.10780977362476525, -0.05640390774032806, -0.002686586099846223, -0.050051808804836104, -0.008777294830372435, -0.0006601867637882036, 0.031123232922444902, -0.02853518628058296, -0.07767027499755265, 0.03631016040664967, 0.008238595917740755, -0.0021541187643120034, -0.03281876521292718, 0.06515686744119153, -0.046880378082146124, 0.05087013911301151, -0.01249876151718515, -0.10236896436218354, -0.07685786672585473, 0.09092235105722281, 0.214504803069144, 0.1426522941948516, -0.10196174834326827, -0.2505391131674577, -0.21435614898090166, -0.25704753987432016, -0.14314653099056118, -0.08787005856505453, 0.008629686976746683, -0.03443983810447885, 0.0018492057514026413, -0.04252538717394983, 0.012964775410991523, 0.08328440303401409, -0.05613418678112678, -0.04685378249424034, -0.04590496839097216, -0.024716231463595018, -0.031621196697740134, 0.04428190503174019, -0.003153743449449394, 0.027004767267828477, 0.07662161857009496, -0.001962220335106526, -0.05582448109323237, -0.10194532946024494, -0.13007207437765614, 0.049855960276417546, 0.20106221800087293, 0.1140004295656037, -0.13914511135585142, -0.19781003953278228, -0.23344964905109938, -0.10136492830749037, -0.1421311068703879, -0.07534547978480337, 0.03351860525943679, -0.08229743975158998, 0.08421870960938259, -0.025077666818790537, -0.006132543893535198, -0.019514127514905426, 0.06550809293296979, 0.02488412478172336, 0.036475411963137826, -0.010359920457970927, -0.037810746405548566, -0.017039771600509315, 0.11923483402616031, 0.042449695245623024, 0.008793978690460977, -0.07538776864277599, -0.10978897396053813, -0.08212997980093498, -0.06799798760743919, 0.16467294332484006, 0.24616451159377, 0.22470596342000515, -0.1046789968306378, -0.20879582626594204, -0.14501884913210483, -0.0920141944185502, -0.06673629053798333, -0.017041223635318056, -0.042701146409357016, 0.003960048244518525, 0.005325886894038079, 0.048374682290273266, 0.03281691329054384, -0.03422876985222285, -0.01622659009449964, -0.007751271783298695, -0.007867219691060641, 0.04962233659826472, 0.025819655101115623, 0.06030437679543747, 0.08159040876278817, 0.08661730679622469, 0.11853470585574355, 0.04553499548029563, 0.013141707904689652, 0.031158311696157553, -0.059465859801965164, -0.04386003517175896, 0.137873262100057, 0.09221771006384642, -0.04827602777536217, -0.026251101604382685, -0.024664738064079945, -0.08636038343394235, -0.054315453935078827, -0.013641219981384551, -0.08248137596358363, 0.016368541956290516, 0.0334815120369532, 0.041498766620463166, 0.0003846039670123453, 0.004911510284058459, -0.00633650961351923, 0.04248441565353939, -0.003193264463641937, 0.011465889779054116, -0.007042577997447845, 0.035920725840134775, 0.08444869862246199, 0.13746032977047984, -0.0023444907196937628, 0.032577235947110324, 0.06796415377457792, 0.05247631348867693, 0.082013250135788, 0.0030128255463217164, 0.007314358993658135, -0.024125821020029737, 0.03372696723602178, -0.004632498844351124, -0.01403025248457784, -0.0103859648782299, -0.030887425460461214, -0.06179364024329146, -0.03341926284208111, 0.03398335462098929, 0.02250399896542918, 0.01861089203385814, -0.024259472044001907, -0.010141255298995153, 0.02554491092289875, 0.03149124184682631, -0.04321437646336114, -0.019170440202585032, 0.013229121893229848, 0.0007411831632423337, 0.010197877754232141, 0.1073920546872142, 0.10893329307888684, 0.06460697496966725, -0.023290252809415202, 0.007048228806535083, -0.0524051108706095, -0.10772039377484864, -0.10092985677592606, -0.0562556549637176, 0.07422491222987926, 0.035897088524054405, -0.06282367556102997, -0.09737895725211948, -0.07699335607528224, -0.03629862498623829, -0.039102915054309635, 0.012955097231156986, -0.05181551662394941, 0.024699211989987785, 0.05414486458197832, -0.02165105684593264, -0.05204877994070638, -0.050673521894495796, -0.04177970634422805, -0.022391544219906356, -0.01039315981472857, 0.025514471052063337, 0.012152520023411204, 0.1167775442953014, 0.05296168517191155, 0.07473264127532066, 0.02001308068218443, 0.06970278773516962, 0.03550910366882114, -0.07422412082757672, -0.06004718747047771, 0.010490068464775317, 0.035520021502274665, 0.08110639207802275, 0.10275112076876361, 0.06440549898353548, 0.032482329059624865, 0.0711132147062891, 0.006718427768734845, 0.008467533679391239, 0.002855838653708006, 0.061009144831460645, -0.0027890345341808525, -0.05543434073428298, -0.023567425217629216, 0.03571374350554053, -0.04979102755289593, -0.026417102556597995, 0.024097193677128127, -0.017687815566079294, 0.030675999854924495, 0.024412642112781532, 0.024527565403192193, -0.014463052747188681, 0.00954024094541878, -0.07605825164831977, -0.08629290200718708, -0.1270058524446687, -0.02151698237988981, -0.046632037519294706, 0.006931686954473771, 0.10375388460637389, 0.08216113378947931, 0.050475348588612995, 0.0016684512600087802, -0.029477037264312205, -0.004440136849239482, -0.020753979787461633, 0.04719363462261312, -0.023318230085897597, -0.011436216255482981, -0.05994005847954016, 0.038787834938070066, 0.030895608024355852, 0.004647016488307705, -0.007517110994778634, -0.024254289001098786, 0.027909013209916244, 0.012802077351243842, -0.06840022534280205, -0.07509925160474294, -0.026588732870268156, -0.07956265154808692, -0.14945311852351856, -0.06397735608657829, -0.11039300398662094, -0.1321045380126173, -0.09772882705681038, -0.05791207533473995, -0.05715553281785392, 0.0456595231411878, -0.002708554878870244, -0.03295982436064546, -0.040996302947542806, -0.05044818632805429, 0.07490623164751958, 0.04261935278261257, -0.03767541043606503, 0.03292894779754878, -0.04248114569218588, 0.022335858467030373, 0.0010013572698968174, 0.017661037428840152, -0.003556186612730465, 0.018332137660535538, -0.0013771171947474787, -0.05658473569189368, -0.043104836707084405, -0.07006599484162862, -0.07418753442860936, -0.016477036139604818, -0.07859632484680161, -0.11125455773367744, -0.0895678808552384, -0.12261888259542102, -0.06983454411452775, -0.04457837637163251, 0.03775708106549906, 0.03923778280517593, -0.028185942544655524, -0.0076499773467720265, 0.02373727102653459, 0.02213596191609699, -0.008942715711958229, -0.010697103936464177, 0.06519005469142257, 0.006820393334490428, -0.014916877660296307, 0.07028786170012409, 0.03331897865675608, 0.0462084441323639, -0.025548024955465817, 0.0659656495896725, 0.021069075690868737, -0.011826969543781875, 0.009987755073342881, -0.022799424057122222, -0.06950014287839368, -0.029915569368414573, 0.007396087654705643, -0.046356557842928886, -0.022542347828918393, -0.06530476134523847, -0.028203532556682353, 0.02337993290060373, 0.011089500189405237, -0.022290787557535788, -0.049542141185083446, -0.03041027784620047, 0.0627461171696796, -0.011111127913067686, 0.028512200846493082, -0.015152876372304648, -0.02930911185189112, -0.009334715058958075, -0.06793044480366289, -0.0070160882834097585, 0.003744981233009138, -0.0034978851660338026, -0.0326646865634809, -0.001494922922094498, -0.0003826784297133366, 0.03872940971215192, -0.03638286408608594, -0.01415342519982903, 0.006818497896657455, 0.08708729349743982, -0.019362755579078933, 0.014483538261768352, -0.02820582460792488, -0.0095188193124883, 0.038129762496211306, 0.0366953971386328, 0.03137601704369469, 0.00811451079571612, -0.013227228260195388, 0.02908675707131212, -0.03192697483799693, 0.000655566008646034, -0.02711396548707773, 0.057054972372678016, -0.07875694430795908, 0.015351480660207141, -0.04743019397929877, -0.00490383641557577], [-0.017903535602127988, -0.0027261446240312032, 0.019536354559982295, 0.04756079280697898, -0.047032173717136284, -0.024180751078710327, -0.03439734583216647, -0.036001923633014216, -0.07959946305566433, -0.017477178745636455, 0.007552411443338733, -0.02032124285626198, -0.00631609622474403, 0.02592099452742416, -0.04074625794820836, -0.012216532286245236, 0.028214507329892252, -0.04845057107719495, 0.044482315736226845, -0.0158033188728179, 0.013504828173468039, -0.007214758097854448, -0.015950725509834913, 0.029229582181093783, 0.005717801487479585, 0.015145174294194798, 0.028708455710610915, -0.0013202269317398965, -0.017308944820598554, -0.015712687384953055, 0.00629788463379818, -0.004359183757743673, 0.06227217357195024, -0.010898344767868893, 0.007169099679117261, -0.021679670485882208, -0.03184746631111958, 0.022721007704834147, -0.012219188367694221, -0.03662328236702727, 0.03356751950743675, -0.034533979442994016, -0.012322890947566105, -0.045873883518993006, -0.03191682931504756, -0.03049383820973571, -0.016834377470130384, 0.050000851111415924, -0.005955953248304469, -0.02657299345729107, 0.024070025540034522, 0.045065479093038735, -0.002554821259018007, 0.030902183394851897, 0.05372510011526926, -0.020541412051622115, 0.0343370701361117, 0.024629526881304226, 0.004507823289400413, -0.012925997702110552, -0.02038612948317127, 0.010906985928562039, -0.006040229943502852, 0.02853330917024947, 0.017286557893658572, -0.012305440206191608, -0.013565007984684518, 0.03970029455320603, -0.008348333271641221, -0.07148643024500902, -0.04993491245932825, 0.041330406195001404, -0.058314414785631014, -0.05325456378865085, -0.06269338405142454, -0.009143813734719767, 0.0123814846199827, -0.048408010061798415, -0.041055431224051066, -0.03705759517806598, 0.011092433300547943, 0.045489726433405424, -0.003468253866536162, -0.019409466731559646, -0.002724213145799341, 0.0004305478832022269, -0.021983293204860418, -0.0025615529413333346, 0.04737882755547996, -0.04108190756314186, 0.006354252428542533, -0.008153138577930492, -0.03250553538852182, 0.05915775370013884, -0.025434149854629995, -0.006178915019461773, -0.0743216430404436, 0.014658465341366124, -0.1120302870543376, -0.05632979297812796, -0.06052397342968299, -0.13184907462244178, -0.0827893358672327, -0.13884746853663033, -0.05572195704193971, 0.029855170375533334, 0.00034536338125418616, 0.00933017130658599, -0.013300180915832314, 0.009189979475509757, -0.0002818431711689261, -0.1110720899639761, -0.005097448291620169, 0.014658486139999498, -0.015448307775520597, -0.004535355312998226, -0.03802943145379301, -0.03846084111437441, -0.004418698464037531, 0.004258241754348718, -0.0135170746602092, 0.08392942274111106, 0.014216932299664403, 0.02838796737813904, 0.015367446110757469, -0.010767437850794976, -0.06010340973640999, -0.1293265189275573, -0.1546028032082353, -0.05337485084356067, -0.06878160737639444, 0.09607085273536237, 0.0891478005525025, 0.07363770443339027, 0.05726753310437843, 0.037295617670710615, -0.013029102341898713, -0.0063831491030819755, -0.044794932110962436, 0.005805094102575653, -0.0005881992592662065, 0.03007757081397658, 0.00986718601090282, 0.032405277003437795, 0.012905087481351551, -0.0019810214452573222, 0.005822492089297196, -0.0020911070594075397, 0.008537803271534878, 0.017126202639930404, 0.03964784942502553, -0.005309364537514364, -0.029813128350691956, -0.027425219999522386, 0.02149250420074712, 0.025906084046719506, -0.05834971047586807, -0.04607715031960981, 0.03655069318493889, 0.12547422529208008, 0.2099791730590568, 0.15577031759477564, 0.1527100085229174, 0.09851498986850608, 0.05768936750962207, 0.031871923092086016, 0.05958632049718716, 0.02423107658348072, -0.017020124773285086, 0.03954472814337114, -0.030103923972717193, 0.09546688202898639, -0.022429882536944765, 0.05197898080512829, 0.04679843505473425, -0.02159331058193466, 0.029590613601690886, 0.016172517228685963, 0.020303801625368986, -0.012557669062868804, 0.021557514355857038, -0.0551757795835418, -0.08149261866560074, -0.11923515276064275, -0.13511873887706818, -0.13761727859004846, -0.056624295524062875, 0.14036882214114066, 0.2062445956734882, 0.22039338715339868, 0.22209642453746806, 0.1029872287127139, 0.08335450132201228, -0.005315741505503519, -0.0029342223187254915, 0.017467606933241765, -0.017404815325632365, -0.012937443411728127, -0.025577615847664423, 0.04781087572637961, 0.0013636397372862492, -0.024306356158630728, 0.002816279245994337, 0.07743434697965024, 0.08332178815656972, 0.12377433502343702, 0.0016251281812000085, 0.01822160929919151, 0.07615260379605242, -0.034264703171329465, -0.18260489420154652, -0.314303476316325, -0.18129744814612983, -0.008375817844713335, 0.025306628032138852, 0.12354849488684656, 0.19710329703186272, 0.12421458084909114, 0.17829196989600363, 0.18833613348633368, 0.11310903357329782, 0.057013455888653544, -0.0026382707060652695, 0.021013422070170408, 0.00892920557911225, -0.04727041765353146, 0.014327262960553196, 0.0401002099857322, 0.0343688686374893, 0.05065909127184553, -0.0030925065096769756, 0.0757229891016479, 0.07713907741152051, -0.04646892920434143, -0.04640240052740135, 0.01294037094122371, -0.01020008275559433, -0.11140869530575297, -0.19012696989754396, -0.16313930150508604, -0.06525095020314292, -0.0010866841015972342, 0.18612318399793823, 0.17358678071219752, 0.22701222654505715, 0.22454050829688377, 0.16611709193745397, 0.26732494591026945, 0.15552571174841143, 0.08188613006570898, 0.027840784983984266, 0.019232759307716896, -0.023477301124469382, -0.015022636147882094, 0.03478373319534922, -0.01697927968646754, 0.05502800245727266, -0.044822997649877364, -0.02401208298605331, 0.06057378358116656, 0.0805791135622289, -0.024282024123962142, -0.05175892540599441, 0.012955288560594153, -0.04440055964876076, -0.057626762770270776, -0.04107760687822027, -0.010101118833901369, 0.056149193134289475, 0.19011714833171722, 0.15241156482025434, 0.14387000120281104, 0.1768780051734689, 0.15980134460205334, 0.12467886163730314, 0.05952729772047639, 0.15388035995092747, 0.08757141452020173, -0.01750120167525714, 0.01211784535260768, 0.01836585540005689, -0.05571305369601347, 0.047144749287141526, 0.02918709130733149, 0.0377225885525211, 0.018516847281165635, 0.021850013291418408, 0.040994736702736005, -0.033045141784936935, -0.01837764616876757, -0.1007274039064566, 0.039898183824648395, -0.0002061114296694963, 0.08745251155569583, 0.029651697522111064, 0.09728582017175977, 0.00947581776058251, -0.04892723599682687, 0.060272366178434705, 0.12717788160138602, 0.07743343941679347, 0.08322047861982651, 0.12176255687230972, 0.07646983544140962, 0.030529248930540483, -0.037983932743268514, -0.00500608530166757, -0.012174240258234903, -0.04315811126932451, -0.00626893664397472, 0.004915185663359938, -0.0007800822923141503, 0.005474342858110132, -0.008428745093870912, -0.07065042247202558, 0.002763881315836164, 0.05768344780781119, 0.01158627092483627, 0.05480171839921571, 0.16023565245701496, 0.032759541374319835, 0.03194899763831689, -0.02478831032906023, -0.0812817776036285, -0.10653949860091202, -0.08009119830443805, 0.0027188575648706085, -0.02804086059462101, -0.07595386178847253, -0.038896635058484695, 0.003986444850117574, -0.010728965435673643, -0.014208541861596036, 0.038255049785558735, 0.043037171242002806, -0.0016080175770975466, 0.015418424327008573, 0.0699702568113813, 0.054895923777380055, 0.03996938431731694, 0.03786270925664738, 0.03772083451503205, 0.04288041368834109, -0.015597653373842025, -0.011528878805872481, 0.09710126309298832, 0.21940685422249967, 0.13990779090054264, 0.04554370806843129, 0.01841550010394676, -0.1648481953371052, -0.25557001701724896, -0.2355711502233269, -0.16234249684380278, -0.09039196705628588, -0.03172168774823749, -0.04199787391270019, -0.09621219719008257, -0.0690170777854682, 0.03304964668839911, -0.0255643932407978, -0.01735379555705056, 0.009779019458491604, -0.004508212617911987, 0.04502239592253432, -0.03131867029026925, -0.004772481211451932, 0.010446430182870756, 0.03139385684917088, -0.04586884458210852, 0.04068392358465997, -0.0007259570975497915, 0.10205151307199611, 0.05992488984907819, 0.13840988073479624, 0.1964531254776042, 0.01901711833413774, -0.08496550392844189, -0.157186596844747, -0.29435468012920485, -0.23069624078912776, -0.14840783763027768, 0.022595336636791998, 0.019074578145093064, -0.009535858039613114, -0.054692758921246455, -0.08227916073354577, 0.016935633295522813, -0.004129464720475897, 0.01283242116492236, -0.028480318775915225, 0.011095399599787486, -0.06974584959261258, -0.05045055444459672, -0.008506492160629115, 0.04075980834015218, -0.006832356713679563, 0.10393395133132324, 0.11277267859115737, 0.07902664355128317, 0.10304121042134194, 0.07211302826808275, 0.12158406702677274, 0.03924054394030609, -0.017606933372829776, -0.09886510540313846, -0.21663496482276715, -0.24939060755178263, -0.13064202042185522, 0.06586834300630945, 0.0954157165223621, 0.07130331446555735, 0.09853402181993816, -0.033446242405280886, -0.05082918290085906, 0.017031795661366228, -0.05089729055810253, -0.017618435643764165, -0.01017291090713867, -0.0300546719167655, -0.08000680588383931, -0.002255305680973486, 0.023151662879736287, 0.007014502372611861, -0.016869490054475314, 0.005320113851614298, 0.09893928507620714, 0.15973777538423134, 0.19239091980305723, 0.12230591050885277, 0.0991957817149157, -0.07384747943602926, -0.0696358257520002, -0.1714448992751895, -0.2688507581158329, -0.16527600687902774, -0.18827116755555093, 0.08148480785248591, 0.07919914975306934, 0.17666613260455205, 0.06350160241017926, 0.07980500650283377, -0.0400117079949024, 0.04681946464966709, 0.031388023445194375, 0.016341734663707263, 0.012727364171366407, 0.06832038470400394, 0.009955337487160645, 0.013423954507982843, -0.027774269717125422, -0.04717184451950657, 0.038785176223347456, 0.14550003892538205, 0.0904185267237194, 0.21437813806440437, 0.1866277682056175, 0.10838476008724174, -0.07870203230539441, -0.06939512788697866, -0.1359113661875968, -0.1975343117257888, -0.1449507389598258, -0.03235732183626484, 0.009993392115782916, 0.08331357213325388, 0.17668311012946858, 0.146479448903424, -0.021977920887480146, -0.02200476015759581, 0.052597256229757694, 0.05434090699800483, -0.02231329411545802, 0.003158174272027579, 0.0212150646000607, -0.04624416374808375, 0.01374067229432352, 0.042100715188526136, 0.0022548649042131532, 0.028587958302781852, 0.023359921487994387, 0.1288154189604756, 0.1452333788541382, 0.18587665577185092, 0.05232915221793289, -0.1111088291107817, -0.25023021193453243, -0.25105190012211565, -0.20948433152217102, -0.15302817891113507, -0.2205589486036592, 0.10053582512976432, 0.05703417140264576, 0.06202029203410238, 0.11341551623116485, 0.06980818038793478, 0.010235940367859846, -0.030591310263096017, 0.060848360752524804, 0.05070473329813989, 0.021310933361964365, -0.0370709832904763, -0.025321855206408266, -0.04129579011038657, 0.03882665303484555, -0.07995261697006677, -0.013450847961320105, 0.01502014693290678, 0.02377885701517674, 0.06578025557088917, 0.2159425823810753, 0.14238939790162758, 0.02591362997320265, -0.20068526848235205, -0.3325199929955242, -0.1897924790946704, -0.1899716280417862, -0.18625081726587125, -0.0723692343885651, 0.0596441069688853, 0.003723926203755325, 0.06060101897843196, 0.11404955609016841, 0.009012173758128713, -0.054238170324559236, 0.1009601736581251, 0.014824847542345993, 0.08894112710400197, 0.048432558969003774, 0.00050093666756182, 0.02400793874534553, -0.0026968435299520232, -0.0014759525745339929, -0.009582536691526752, -0.02873429494890507, 0.01689121379481005, 0.034237762055090055, 0.11681479929274627, 0.20446938507234722, 0.26371457762796285, 0.0835568387760117, -0.08041808788186178, -0.18604099096403579, -0.07745703565991993, -0.03527046632263834, -0.00469279939126739, -0.02891124441672242, -0.0015417916406482222, 0.07065181917036703, 0.07637493294442833, 0.0804942413607558, -0.04019648549757802, 0.022063552471080147, 0.06182945389760046, -0.00889027673602813, -0.030680201437896504, 0.06815154517736571, 0.017327841562129114, -0.0202523334004732, -0.030031115498636903, -0.05304250415925805, 0.011514123533228473, -0.049730910307455814, 0.040428125985747784, 0.06472596837559123, 0.08978303257000302, 0.1851185176954129, 0.15156199689022698, 0.13868411598031516, 0.07305967489761145, -0.0023853519848817343, 0.0005758900762397271, 0.04098897930712897, 0.05631091010076569, 0.007431481902886763, -0.06533641988687881, 0.028723384186332284, 0.09258138828481227, -0.010186597099919337, -0.04009035111014053, 0.023882324348451302, -0.0557864165298261, -0.020823114831686636, -0.005970204389888068, 0.009709385218876853, 0.0005279539207313135, 0.05768646097714452, 0.07643544163628303, -0.056801209189084954, -0.059351320745951314, -0.028807359331783213, 0.005367068004585749, 0.02135901965833712, 0.11933991270898156, 0.06262795882311108, 0.15542831066959137, 0.08320855421392816, 0.13374998968631352, 0.09320962252515028, 0.10503782873195339, 0.06247162368679456, 0.017279801304294382, 0.037848148870755056, 0.05310254136518154, 0.10383228460492155, -0.004605430712721812, 0.014656117519501653, -0.0350717547799683, 0.038114418893473063, 0.003221708621424485, -0.011358788387952038, -0.01001897596745265, 0.045148900105448794, 0.04550547053137889, 0.02329983173971165, -0.049307228776244, 0.00887235799399685, -0.016936390994457696, 0.0010672181427416891, 0.008532129989604403, -0.04856600401018816, 0.05603692848248662, 0.03933825664702971, -0.008501592294607632, 0.02268992143659041, 0.10012346654134796, 0.11810941605790862, 0.1989943448731599, 0.06842549030759416, 0.027671450126337163, 0.021908453475358428, -0.0001213000255144989, 0.039160251820635324, -0.06111804724664572, -0.03236583436422867, 0.0008737395083990932, 0.048110901759086375, 0.038754932374699146, 0.023658477223672213, -0.02598305423171167, -0.0147716272561824, 0.0022911701497067938, 0.06193229470635954, 0.020097471855953473, 0.03963877866907487, -0.0008499175831579007, 0.006480319650743317, -0.01133744102045356, 0.04431150787001999, 0.01990197155034722, 0.07575302636678628, -0.0027425798884253946, -0.02558254359940402, 0.0660290514265064, 0.0948486362335363, 0.02940719389385704, 0.07957054121389212, 0.08316983929204931, 0.04309307770422675, 0.07055585974377912, 0.03331045513039987, 0.042113828972413656, -0.030127463077066156, 0.033236137721518094, -0.03067272940354119, 0.04381189588293204, -0.05270996714320317, 0.033713012120575266, -0.04162932246986736, 0.029643204823846834, 0.013417738071188621, 0.01783103262838931, -0.04291748503460212, -0.05697507025322312, 0.010825410709360654, -0.06659423037871914, -0.016199091265802112, 0.0765407528052627, 0.023204264887946333, -0.00346353937811852, 0.028765279628558175, 0.054723953956791256, -0.016264939952595713, -0.08040998132005725, 0.01636197103703761, -0.018947522184313722, 0.04658977284110835, 0.008017488102439536, -0.09144980766854253, 0.0012785412430955322, -0.011404114934052918, -0.024035171598420862, 0.020082282189124535, 0.038017256880422554, -0.0581608644401281, -0.025284289057750976, 0.0030689198749198625, 0.024276198503580634, 0.006397824197186134, -0.02612031805060149, 0.00032321979537840005, 0.05264317224108019, -0.003615753447134161, -0.028753402256780036, -0.04201118418892023, 0.03469708584613128, 0.030724718878115176, -0.05231969049744893, -0.06105701751873278, 0.057065792975954696, -0.07149939300345684, -0.06948675145126385, -0.08853878622838228, -0.10273839802556121, -0.06635775597112106, -0.08653797713315524, -0.08719635156612698, 0.019327206004626007, 0.049708688500766034, -0.029134482032545348, 0.008890770331600318, -0.0173579564098525, 0.0197796196554425, -0.05695570863839897, 0.05611349271699765, -0.028713095384427775, -0.02465526610249046, 0.04208683511582277, -0.03330460337948075, 0.014372537653121716, 0.09200418049676978, 0.007876098758796867, -0.04020978539142104, 0.00016777695590654255, 0.07577777449440609, 0.06867139046898886, 0.05493847472735808, -0.008443207395415096, 0.04737864731642313, -0.03808082095967847, -0.027459132408120514, -0.06354254643425046, 0.0005302065717070746, -0.03429055678036899, -0.053611462907643306, 0.011180682901856438, -0.1052002020895394, -0.028868176317304567, 0.009723184626827976, -0.046899480440754045, 0.035777228885045274, -0.009199850634250608, -0.03307452544423493, -0.05173289046384001, -0.003322094134337662, -0.014758540645088134, 0.0470178020892276, -0.03904976026830248, -0.015062439940900825, 0.032041336622931876, 0.002350453589028456, -0.04881676911905521, 0.043278535751415353, -0.034172304020048144, -0.0032399633326014397, 0.05630021962861192, -0.0011019242602090076, 0.025550971846817788, -0.00646618119301714, -0.03038790643811396, -0.009504445439843145, 0.024091909332891213, -0.006220064582613238, -0.045159570343164944, 0.01662146667358404, -0.027186458639528892, 0.0077295064713758, 0.03512496669208994, -0.0012106483174947787, 0.02043190845614968, -0.021642597720711098, 0.02255022891233286, -0.008475324335782472, 0.02243680940903416], [-0.0012765993471960055, 0.06819643532026798, 0.01765286132123089, 0.039309644607690875, 0.05305650933433545, -0.07212330927588112, -0.035018954149854856, 0.0056841487296158755, 0.06144704173276702, 0.001639450185471962, -0.003999937768426352, 0.03381109475808051, 0.009358508752931111, 0.04261057320567326, -0.07324449855708053, 0.08877508847282051, 0.04104466167227583, -0.02611418621735964, 0.001006794351662083, 0.014542242360893598, 0.020366516291213936, 0.015264132259485369, 0.02506668614452977, -0.04488166179652969, -0.014262282193200212, 0.001028555555625252, -0.018252002357941045, -0.01791595634447966, -0.02384181644140631, 0.0035273043050993635, 0.06206333011149614, 0.0043298036415391795, -0.005162364400067396, -0.03982084607775299, 0.011884017010111134, 0.011235270017967855, 0.07609085861128799, 0.008933684742632227, -0.02671579728137407, 0.02692818717348507, 0.009001981032324649, -0.02905566169641604, 0.020239524573751038, -0.024983260108939045, -0.08243890232374335, -0.015205765438773488, -0.020510668365667162, 0.029370585088114916, 0.0009201418407697854, 0.015280781205486375, 0.032741607792186156, -0.0103261758302569, -0.06074414557402293, 0.021858407935172002, -0.004057571929940081, 0.05452737255793638, 0.0013847794308601805, 0.0219632954191037, 0.08546967140280612, -0.05335068342636071, 0.0019513368827619735, 0.010379066886486047, -0.04265673184038937, -0.046938691110972465, -0.03718486572403257, 0.017788321424143046, -0.0011719505566670067, -0.048888138630021845, -0.004587519984189131, 0.02756729261103235, -0.009244338428900057, -0.010169153458017628, -0.011955886046623255, -0.03122235483886001, -0.006949761891606605, 0.0014001185406530773, 0.024068529743785833, -0.014511080603975093, -0.023115990272244834, -0.001136217100675305, 0.0486906715168573, -0.01980661922410114, 0.012003358052367803, -0.039042624483265335, -0.026987005065567126, -0.016323908209942516, -0.06530871416955573, -0.037593312338265586, -0.00642553175677331, -0.03281586607943641, 0.0574456590228672, -0.003110349255112289, -0.014569896091084137, 0.029876226905932956, -0.07631038013990853, 0.003723169187791823, -0.0380634264466802, -0.0342949481303305, -0.05335074934014617, -0.07622268247915523, -0.0351538490389328, -0.0600390930748554, -0.051493237099375117, -0.0024205216167452665, -0.054981627151798884, 0.006683082966572084, 0.04480490757893108, -0.003706079787131567, 0.054452970889943136, 0.016648625225768775, 0.02357601532780952, 0.04386911264298506, -0.040595434266578447, -0.0339705810341843, -0.030873237177284588, 0.049124268901185125, 0.0730000056413873, 0.08059263150669363, 0.042476775788087395, -0.005495018024727979, 0.058038800854054995, 0.0006599381105027807, -0.03280212056607476, -0.01556983736860346, -0.020488604631752987, 0.02749710434181578, -0.05952589277145198, -0.02350912086834131, -0.04362128435214216, -0.023563690554074042, 0.045082943599840275, 0.04379477402933786, -0.03516846529558312, 0.006396303966790437, 0.006163673748392778, 0.03544008239647306, 0.04817830300899032, 0.014312533496458592, -0.029180095468265804, 0.008122164677615519, -0.05401794705967783, -0.09663439127979183, -0.0005132915835006315, 0.04717050129925554, 0.0006644070412331283, -0.011938148139035447, -0.0010239805104397663, -0.018540475910218, -0.02849868640769735, 0.02318885191326724, -0.0706951171839133, -0.043532252498079745, -0.009603307492665596, -0.010445686704267985, -0.1140219298754394, -0.1787757418754039, -0.03864697488933453, -0.027215809822065302, 0.06299005705373253, 0.005263444729527727, 0.006555588658097558, 0.0073564544484088995, 0.06411930330310259, 0.027621649165072145, -0.0018300419969246827, -0.0414962347962538, -0.004085905649686417, 0.03411645703049663, 0.06367720951533659, 0.01956334545627584, 0.029930871249314258, -0.01618137567130101, 0.01148387269936728, 0.004064388181569152, 0.04329043934166309, -0.002233335633570845, 0.05911144332255035, -0.002530260618452148, 0.05092575207808054, 0.0698016478502426, 0.016806174001294184, 0.0005832614145132205, 0.044956525266531065, -0.0672905400605966, -0.13711646514929285, -0.02743967948874531, -0.04124731572581279, -0.049352935857473204, 0.09063074350284532, 0.03259529157891001, 0.022972066895157947, 0.05061984187004954, 0.031442858326690415, 0.032835442522017935, -0.01032634316151991, -0.059214853035190675, -0.04560935110235046, -0.016754795715725208, -0.020449134382648195, -0.00939197975770837, 0.06922745262857147, 0.025013768552950618, 0.002897311186602914, 0.039101807378437, -0.019194275836618375, -0.008041236576175363, 0.07882673244865954, 0.008086036016222004, 0.009720991175407465, -0.0663382872274529, 0.0284390219966338, 0.0039309920334314186, 0.008315774221421221, 0.03697144691332148, -0.03717573837811749, -0.005093609590015983, 0.03565582996499728, -0.0003822361576652211, 0.04569810113518907, 0.09668264572291314, 0.09043104277267162, 0.09874680950976518, -0.05004705676125969, -0.013918059811109053, 0.04047411696850913, 0.02274469642976291, -0.044865149636294344, 0.020519376074959243, 0.021479221600754984, 0.01766822940144754, -0.0485294920957238, -0.015615201194112785, 0.0499398407567468, -0.0665414877805775, -0.03284852688768135, -0.10366263280863453, -0.06457327765823122, -0.12715444545164603, -0.052051226615695785, -0.04320138129135571, -0.014136122739767434, -0.04006899367369013, -0.05412041417768925, 0.07479984407615678, -0.010609413108138547, 0.012902594527315805, 0.01774147030735023, 0.08607006066893962, -0.02028336986794504, 0.06405068671138965, -0.007470538445889218, 0.026949269862644207, -0.01298833205420865, 0.013074425558499888, 0.03353327461327629, 0.004086051494016837, 0.022485810102703747, 0.035381182756077746, -0.029571057080985133, -0.06091088189879589, 0.02198325443147554, 0.008208866355690648, -0.036169293354276155, -0.08567098433546572, -0.10214380120035309, -0.12980913338613684, -0.03748781554295762, 0.07137729974794023, 0.0380287923118543, -0.020670222573269913, -0.04204775636962673, -0.019591700443021585, -0.03779325451171041, -0.03982637613365416, -0.006092354549029663, -0.01610154409417306, 0.04567967847769245, 0.01305393011509044, -0.010457298692555222, 0.030534018002862175, -0.04609314505618685, 0.07712013580296381, -0.042310651277375315, 0.005042129168164725, 0.015153067481889822, 0.011193837497633162, 0.031282522304451665, -0.026121116389607648, -0.002424514219249274, -0.037188877464416736, -0.08895630745415595, -0.14625453738440633, -0.09410222685946061, -0.021379864386679517, 0.07463817669959254, 0.12098496136211909, 0.08170653956926124, 0.005822669787813358, -0.04025988375039446, -0.10716985969359223, -0.04260236701984952, -0.05189191469579198, -0.048838195032459564, 0.014284094449579576, 0.014961431144110788, 0.012393045714013153, 0.034654725573167434, 0.001833968484348187, -0.025349976152248, -0.008425422039767715, 0.022405470381061356, 0.042985773947676525, 0.007631166087228885, 0.027793475821104894, -0.02685033880145945, -0.07346208172137153, -0.1028307476696255, -0.06256346380704648, -0.06124398010396336, -0.10318734548269003, 0.05979000293407062, 0.08253947618514244, 0.13912796328014823, 0.24004025953662422, 0.09912786742153075, -0.005640754750003671, -0.011385777413918764, -0.17571893072428313, -0.16337786935160237, -0.08363614397355194, -0.09641608756427525, -0.10819161717870815, -0.014319344085982262, -0.07843266268944056, -0.04449278163937911, 0.06135868100828186, -0.017371866944872586, 0.020313459256624495, -0.027868795311004595, 0.006827838226707266, 0.004757206133467963, -0.05156014270675598, -0.04988411902930225, -0.04346044127073738, 0.0055329770935911606, -0.0048252074296289684, -0.02261979379033201, 0.016896476062141567, 0.031166732683545657, 0.1584612006434637, 0.09755216427734723, 0.09947504126880058, 0.06422533369297666, 0.0793739179102386, -0.03512741633336263, -0.051322809819912905, -0.07863945443467511, -0.08889086891702687, -0.01876928750119444, 0.019005357639463878, -0.02286686566898295, -0.02607856756530297, 0.05771348996959486, 0.012461849638296127, -0.030586340841321263, -0.021089071054077844, 0.010847995951137729, -0.02347547187748813, 0.034773966347312446, 0.031946977166897886, -0.05109525570515788, 0.024366499867084924, 0.018305821604786946, -0.004027367468426165, 0.10061947010422835, 0.05454313975092388, 0.10437784973978705, 0.1498526936595223, 0.06246554837017078, 0.017460645320867878, 0.08771807936647366, 0.09241361807463926, 0.13330010338145967, -0.028021047206567153, -0.10102507134943116, -0.09180882656819421, -0.08514940021752528, -0.02037213667947704, -0.0495754305797453, 0.008176547208664306, -0.010429488837020849, -0.0038642528706454996, -0.03961792869354598, 0.018839133607727692, -0.030324253790454583, -0.00927725977059027, 0.02128954944097804, -0.02061488440222858, -0.009588357788904689, -0.009247528866956045, -0.07530646381370082, -0.059247015556170374, 0.025781346607257827, 0.09167023219919436, 0.08245736378859482, 0.07627126706445361, 0.07233004700426356, 0.07191862876142342, 0.10132688837259544, 0.13573798774627807, 0.08908270497352691, 0.05286748311245653, 0.038675651709466394, -0.013672130881482935, -0.00880100297775295, 0.008291084403031558, -0.030224949292424842, -0.006110405113434683, 0.04108437432370029, -0.018907214619795647, 0.007051154117939899, 0.009648199697779804, 0.003250174059090765, 0.041985698318825385, 0.01030055296823413, 0.02225488720366136, -0.008529925161452227, -0.0020149074379563476, -0.10081250242816521, -0.035483957518970405, -0.07943056619501926, -0.11201839721586394, 0.03307581254804331, 0.03283659161689498, 0.02050040671681031, 0.05088953992574763, 0.04411096992056224, 0.09060519886654995, 0.050418725441463516, -0.016519743146190764, 0.1061410420271477, -0.002611654385371065, -0.0015203305883537183, -0.003567749042173955, -0.01772628303042064, 0.001583006780886886, -0.015237289503303445, -0.040824023763843295, 0.0046960259704911834, -0.01920562714841293, -0.03562181700335807, 0.029104325144179665, -0.050275546365978245, -0.050656032002004955, -0.08971415941083861, -0.08594730393805168, -0.12961367208867502, -0.18509807822798044, -0.12799430421445634, -0.14100402586314753, -0.14160664460890302, 0.012904553135281625, -0.036629201974383005, -0.02950659219386788, -0.10903198328300107, 0.07653154840425133, 0.034481466015173226, 0.016694889383092795, 0.02327457587474775, 0.0018662877131451613, 0.011172098239936194, -0.029252770870174364, -0.03007631011428069, -0.05342079194853166, -0.050275435282527724, 0.02760477790187203, 0.005060031168038977, 0.015182797948234078, -0.019670765229873075, -0.026995443822011418, 0.007653100968811851, -0.06780145687441073, -0.08304837516742178, -0.11417149168801559, -0.09754363702210427, -0.1664008525679912, -0.1618814098607396, -0.19189496715587723, -0.13339086401209688, -0.13876086390076833, -0.09146389958333105, -0.05722256920855815, -0.006329895238600008, 0.07499191293392085, 0.011291758414681129, 0.01199120463003376, -0.08063841134277355, -0.03500806284897546, 0.03664581614687172, -0.02594270210716906, -0.04777851001324352, -0.025808195122567205, -0.04042791084006032, 0.08556513927080463, 0.03599852458635552, -0.017980677864865742, 0.0478123170694488, 0.02333359180464147, 0.037440054197250695, -0.027285803551391482, -0.034267096621790505, -0.06143549179831005, -0.1248047480140913, -0.06279101991428773, -0.1859556745350666, -0.08710047065250248, -0.14419887843805626, -0.0975881834488614, -0.027748800996619784, -0.1285983278878694, -0.07233837358083445, 0.029824107010948963, -0.009554596463222355, -0.006172343418492716, 0.0288291336184618, -0.042203404699868115, -0.027270090568072, -0.04482595206986716, -0.00967858346660861, -0.03475819931897153, -0.06765928189454133, 0.025235781368426143, -0.0010478486124789821, 0.05092783608038028, 0.04622164102471071, 0.055510117004110335, 0.07987183034968184, -0.05353004304931515, 0.015743852573868154, -0.08049291096011299, -0.026257034231015806, -0.07834315841978952, -0.11488045029028361, -0.10385764486075423, -0.10270918092456958, -0.06439080758706461, -0.11038073752439186, 0.03383694663590674, -0.014683045884823092, 0.02595795310088994, 0.058894478691973604, 0.002214777012725858, 0.062827327660254, -0.058914455112079246, -0.011673938599826907, -0.04700201988749426, 0.002631109843327256, 0.01705776020463062, 0.01188668810674898, -0.06144770420049527, -0.035280296100674575, 0.0021663056280090374, -0.039985690023666864, 0.0377952722855133, 0.009743180608181922, 0.05686079720728843, -0.042962991862622694, -0.006809916159798911, 0.015680943079412375, -0.08451173296243378, -0.1429001581047911, -0.02567829390308238, -0.07479508791613068, -0.011033007629871309, 0.0029042023978964387, -0.03006263483906685, -0.01434093720318196, 0.11228654434644829, 0.004500513485270669, 0.0004198359589502568, -0.022551530947010536, -0.03747862769998631, -0.03743932313598313, -0.034055244774363745, 0.06628817271715726, -0.08581374385759505, -0.01648574536936614, 0.013273914894769576, 0.009163130733502245, 0.024478020274722342, -0.041441923394908015, -0.010869957039419818, 0.014072916607332656, 0.07762131243777648, 0.07283692167648514, 0.014622532164936131, -0.009121397412036903, -0.014430691792431954, 0.049888293913791786, -0.03686454150508842, -0.05161928140703288, -0.01686485020321932, 0.014706414747322562, 0.04388484955312445, 0.13554550344878308, 0.059695305811678756, -0.03405839178699542, -0.0780986394771868, -0.10354365577839175, -0.07664450991147224, -0.02697358482214591, -0.04436399554298585, -0.025728559462776687, 0.03990056128036373, -0.00922323553355843, -0.0006242735979131385, 0.015083201195921526, -0.03791158480641337, 0.0278572004149703, 0.02783417440589363, -0.022691259616678405, -0.06081201346386482, -0.023213037644524526, 0.03964284081963371, 0.0658154486190693, 0.017467247251427034, 0.012006574808673131, -0.03890215134490974, -0.02373363582200199, 0.003947935021328221, -0.0057294316180876905, 0.045442318785212266, -0.01013717761952591, -0.018122454190930743, 0.03518196590681721, -0.09596091727118028, -0.049322909982281504, 0.03296959122403589, 0.017426024832027168, 0.015477432443891496, 0.05487906496184351, -0.008990306980293896, 