{"layers": [10, 32, 32, 6], "weights": [[[0.09007005392493853, 0.10079864899570491, -0.16930562014715175, -1.087974877717005, -0.19126515981304573, 0.17680381370098186, -0.03633374099585906, -1.5387028129594276, -0.21080084416445638, 0.46798815063004007], [0.24524372381051046, 0.10152873127071892, 0.6997997965679337, 2.920203712324254, 0.23339068982296785, -0.12052843323757285, -0.05099184985116454, -0.6283781720872234, -0.06205538998894585, 0.005258362100940158], [-0.7739551898754131, 0.2261998302019443, -0.1332762599183427, -0.3740865872595288, -0.2642787101744998, -0.24639270469888488, 0.6452913514167083, -0.2924295671324017, -0.007145080116907559, -0.5080056082670074], [0.10035007264427005, 0.2813034112327952, 2.3093555340365546, 1.3612714327020723, 0.18955808757316692, -0.6797548553618574, 0.32246087533676193, 1.3285639111760177, 0.2767877799499206, -0.36836450589475267], [-0.21260951204876977, 0.28517571336653447, 0.9902391529352571, -1.9667383043918052, -0.03361960159015352, 0.13133767191746554, 0.17857799738519495, -0.7846924209869266, -0.01404188009719403, -0.9045865461049619], [-0.9569234275179712, -0.11387803539586927, -0.6449126695396353, -0.27917360722681145, -0.8707101380544916, 0.3039594438989196, 0.02395598795317999, -1.2006283853758086, 0.015825496538842132, 0.6261896380319354], [0.18551790337908136, -0.2302809604151327, -2.4768440968128695, -0.3607424842863088, -0.09763969248783666, 0.3140013458707059, 0.07309687819920518, -0.56868049339444, -0.14309407293515933, 0.7472263237458259], [3.5502953082947717, -0.46480558911436426, -1.1908504550524035, -0.889647970228634, -0.4163058818110254, -0.7594958463174636, -0.14122046017382522, -0.616616297976235, -0.31878228804422115, -0.12913339800845886], [-0.7193062222369015, 0.4749932847137397, 0.901398244015985, -0.3015441041630543, 0.7419270739862235, 0.26348611732714644, 0.004375971455070843, 0.498207329566071, -0.01950051596484806, -1.6837443066595745], [0.7941916418014431, 0.40760228106797675, 1.3634708266339395, 0.7049180728033385, 0.16155026073736442, -0.23368287589933556, -0.43243728690524996, -0.007222227275578156, 0.15324606962563864, -0.38067024685400874], [-1.1844774290614535, 0.0005213869431069827, -0.9242824310313177, 0.42014471870813463, -0.6694364244912999, 0.06690646350669643, -0.1356827331314446, -1.5314513765035147, 0.3875061127020719, 0.2829454341527687], [-0.0145029077443477, 0.17203895034606728, -0.14582938528928957, -0.14999582919651366, -0.09148742737093007, -0.4100006179223724, 0.03443888806592124, 2.0663958067374417, 0.32984972226402565, -0.4290320356668906], [-0.5702384962701962, 0.0533349125136703, 0.36111691670249896, -1.0234866806911813, 0.9937139003229867, -0.16430419363447904, 0.2127226202896543, 3.105646344752212, 0.35739769920157816, -0.4875603511209362], [-0.6260592614443201, -0.16662201372483043, 0.3479759541970844, -0.25965633788161985, 0.21339791912988904, -0.1803617940678992, -0.09087208872312653, -0.9652742292003349, 0.8287466591125738, 0.014093830304010742], [-0.09097333154711981, -0.08008239195496322, 0.8023521476273545, -3.5670583421874644, 0.005232975249160151, -0.03521900116625753, -0.06610731510284243, 0.19650149520571153, 0.14327266962463658, -0.2632883388698106], [0.6620733432484276, -0.3127180636679612, -0.7574741061171836, -0.12716218029924098, -0.6269215888826148, -0.143857362011007, -0.10510363850025344, -1.013417841502608, 1.4025634645757175, 1.1877722141470899], [0.49092362862809485, -0.008914768448307674, 0.7044573466822804, -1.3114227504168199, -0.6360194257146343, 0.5049278921478725, -0.17154409694424186, -4.783322941856366, 0.3620031170635673, 1.1366347663594858], [-0.3602186929980243, -0.6691783174678003, -1.3542151087959688, 1.8878882538630062, 0.7632688185055619, 0.18223049207327402, -0.3575078723786357, 0.5169710299029581, -0.06994595924113055, 0.7515091681213673], [-0.35253812395207007, 0.19071085523211537, 0.960552112334973, -0.38357027930919446, 0.49567865802567795, 0.10092293533197526, 0.01707419653648679, 0.28299579334025127, -0.4086246633337101, -0.806659421929791], [0.5202046432282093, 0.044451803743298164, -0.08501854883168461, -0.08643563947607313, -0.08681173194551027, -0.04391578329744021, 0.06665333739356015, -1.4344480846327274, -0.8005485155176735, 0.15859509632636803], [-0.5513384643944851, 0.11762978348672794, 4.546982859625185, 0.9678273528232844, 0.9383041087028869, -0.015094273705381547, 0.0722856950850834, 1.3602183189995989, -0.1057272640688603, 0.5366574895282596], [0.06274117860249606, -0.08155215107597835, -0.7169343721994715, -1.4045017529561565, -1.2647414228105294, -0.11508719274220258, 0.5314433704711962, -1.5593195987680595, 0.21995470986984975, 0.20547512058038267], [0.018696454991331758, -0.0005509072138820981, 0.008132155592240002, 0.06313980602988388, 0.03516665085717624, 0.0842675619588351, -0.2500114187977302, -0.1196231448953182, 0.038183876324796605, -0.2786677465399168], [0.13996037706889083, 0.30698266671108965, 1.4730162824485147, -1.587626880351758, 1.1365466853601702, 0.23184280552826775, -0.6006743734963418, 1.2607134616717202, 0.24517019070383592, -1.6783408121806482], [0.04937889739786544, -0.17100064840602458, 0.5792016433375967, 0.027054179867549176, 0.09608760253908476, -0.029131657062135403, -0.2555140835109275, -1.1018613875015617, -1.6375987531340743, 0.14935098566536903], [-3.591528279803527, 0.22367730189911972, 0.7658785372132936, 0.3850289743311136, 0.6098150986730501, 0.5797801405583105, 0.04386585597689986, 0.5087203506245476, 0.05093574190178977, 0.06708417043176203], [-0.08825271870332926, -0.16646573553800892, 0.43488532875162517, 2.0616320936312453, -0.08648357321395049, -0.11752769320265112, 0.16239186413079057, -2.9699531408274753, 0.21124669660825696, 1.2505850658812472], [1.419662351259116, 0.07535418566039771, 0.8745245791675081, -0.08481190790669921, 0.5802779058485611, -0.009072597109618703, 0.04091999102904522, 0.876633659153308, 0.18592762226275586, -0.7943831918331348], [0.6131970587959839, 0.33312422836951605, 0.6662420568809824, 0.47089018112965536, 0.3743795735248061, -0.2154579946031595, -0.11507671513893056, 1.097914208018309, 0.4783266766926305, -1.0058939011504382], [0.30077456105958933, -0.010939817568650218, -0.5117460682994666, 0.6949145204388939, 0.34155576994125797, 0.27798273436911813, -1.4727125253109636, -0.2915598599457337, 1.281515856306535, -0.08542816683947707], [1.2706295985959497, 0.02859791893039201, -1.2802614628472873, 0.03413990623863276, -0.5691684762023971, -0.7152054385682455, -0.16511404290290396, -0.6824960504826506, -0.22685047517039544, 0.47508922708161555], [-0.6488427559182908, -0.07477702196224881, 0.1548608558753641, -0.23993674950783864, 0.28999385916678366, 0.08139801062256245, 0.3655861290725746, 0.4527005553335977, 0.6195412423614883, -0.29231329985658877]], [[-0.022774554678599155, 0.37656045738574456, 0.03684024740713753, 0.15195944144764204, 0.036425816372708565, 0.1304553053017176, -0.12412881842836125, -0.06505213454936913, 0.24481941360204326, 0.02201240628126385, 0.22252384499985267, -0.034679018051421734, -0.21246093116741713, 0.19110356064362677, -0.123411296091617, -0.04276820292007362, 0.26163600500195083, -0.038963348282401056, 0.07853880667096723, 0.1373334022150675, 0.07209955081704222, 0.14348675667058217, -0.08842268851292207, 0.0976492857652691, 0.1411876330483534, 0.18879704458696162, 0.1493150319911094, -0.12372264524205338, -0.041019436590250535, 0.27017217954878286, -0.16844473526760098, -0.06744557646435634], [-0.19016339346959368, -0.593537259164222, 0.09148183431085312, -0.11742784762304152, 0.6187604806166538, -0.1526424144763683, -0.6848895788796248, 1.5515887939335105, 0.5100679018811136, -0.39485321419717295, -0.15687130466241553, 0.032425170424741384, 0.11081597123660156, 0.15309733197961087, 0.707389572351784, -0.3497375273238068, -0.22977057174198406, -0.033790497351586526, 0.3739502273025862, -0.07699413663285425, 0.04336899735023156, 0.00925901318504686, -0.04990460210459699, 0.15272158649610443, -0.4231751185428037, -1.7600360735244502, -0.2211374998298621, 0.17347027778322816, -0.03546484572790477, -0.33925350457828346, -1.2962291326752713, 0.14914671528489365], [0.3625888366186824, -0.9608226490215183, 0.30596084676297974, -0.7979436807557453, 0.1334825740594227, -0.4169932325184995, 1.0013264877026158, 0.8144247678766827, -0.48480727123290696, -0.26240804301462034, -0.3193053667548347, 0.3198250755687682, -0.20767969840140543, -0.6855007627359301, 0.3572259119469331, 0.28861530566538457, -0.18568660173730794, -0.2708126955578412, -0.11797817438376146, 0.24437108857373813, -2.30164508974999, 1.0334748496150188, -0.006635701639106736, -0.7155582499332495, -0.5763887444929376, -0.8499061903077838, -0.4093832450687562, 0.2745621487786078, 0.03632758891515892, 0.4482861869408568, 0.9407588458988396, -0.2176364622538253], [0.31000539340512984, -0.9448763685185159, -0.2125053117610058, 0.06786001243840595, 0.12122056209600908, -0.09194407912451136, 0.08393828101302289, 0.10328273467665078, -0.17657694558356246, -0.013078924971051155, -0.49139563448036977, 0.0802804539695593, 0.36159726053586444, -0.2135935128166902, 1.1170182097571366, 0.0337491004683291, 0.11140127443494535, -0.4570674365067105, 0.03924293516190478, 0.021979234789027875, 0.5097724596048823, -0.029104882820813714, -0.12950180739584696, 0.23704339023867005, -0.1709974492737643, -0.10496626641570721, -0.52850005382315, 0.23395427677100816, -0.017060426990603943, -0.18208921149799634, 0.028600857446959078, -0.13294962525508228], [-0.18017782140970665, 0.4181973020445904, -0.4370070481439478, -0.6291530183727992, -0.7925259700605966, 0.20872067944075862, 0.6602158574504224, -0.3788455938540323, -0.10979467553702905, -0.5991585279942344, 0.31669014841001814, 0.14994118003014914, 0.042628644980031764, 0.21520193788416173, -1.0238109969597957, 0.6067711372870739, -0.8440617855225021, 1.1818196318529013, -0.4860989524049523, -0.19990739588841827, -1.558215366223517, -0.3171202885629039, 0.045487288871045965, -0.5518788518660699, -0.14957392913737794, 0.7259615812502145, 0.7049694806612297, -0.47892228459491265, -0.37992379862162123, 0.16835660035620223, -0.13059598044708093, 0.11921250776353699], [-0.0023397086803054, 0.09353498634526575, -0.11560483862810506, 0.05066110844489783, -0.16278660779248236, -0.06305487364504363, -0.05573985567751593, -0.0027620756080516265, -0.04807733405482665, -0.08584983644729181, 0.08865491390983736, -0.00032517121634185965, -0.044329831535510324, -0.0633606933155243, 0.011828248229544938, 0.03594598988531095, -0.15537325452078804, -0.13393919743657695, -0.07268918301752436, 0.008172504770681458, -0.28945476988218866, -0.003622169190265019, 0.06000222536359183, -0.25347764311670634, -0.1650096485825831, -0.0013055891141948558, -0.02422107084855297, 0.06597582918653658, 0.004496567047422988, -0.06315082669531537, -0.060141497028872254, -0.1360999201954613], [-0.20878127122561668, 1.1062313918932283, -0.4628133075671445, -0.27335152637669224, -1.2268032787276586, -0.028396688125909543, 0.6413371302586762, -0.3749881476383472, -0.3457173226270398, 0.1255636357079725, 0.17817872088415557, 0.04129762000299652, -0.14319262702222907, -0.6295829739767855, -1.5282282782173888, 0.1158657684969712, -1.0062768017576362, 1.5722250854643856, -0.09847943575049195, -0.08787011822495842, -0.16381384899611778, -0.9063526665303769, -0.07186606947100305, 0.09634883065978839, 0.39757771567470357, 1.225652114300306, 0.09031470227967732, 0.1281211327551919, 0.10668170229247392, 0.5338239981980893, 0.6040046721266712, -0.6189164201711443], [0.03936704772581075, -0.2011143970742733, -0.15602257775804318, -0.03505468682278031, -0.33237082188800143, -0.07401136738175042, 0.07753150951363395, -0.3429740228113225, -0.3178582117122322, -0.2064141611697319, -0.08948936153789726, -0.0864967368436752, -0.15395721898900686, -0.15534033717598558, 0.1409559941970494, 0.13012530761310354, -0.162845512038087, -0.14760087730313892, -0.2441763339331961, 0.055328736645208924, -0.19768053614395276, -0.22412025990531154, -0.03451609530155773, -0.15395882378110493, -0.10000255981280166, 0.22605463371234846, -0.16622036603971335, -0.3645624419262294, -0.20137789295037156, -0.015299305337130151, 0.019865686737674818, -0.10362710932656446], [-0.3069377958422591, 0.017460489721343186, 0.2643234944997403, 0.12360358483109261, -0.2126664553176753, -0.20239089758669013, 0.29634914793586437, 0.12233344546183118, -0.30108578709399525, -0.14372412959389824, -0.21181617862187377, 0.2548208858216647, 0.07309602615310128, -0.17382980686229338, -0.28034048052563576, 0.15221407595108996, -0.6186402772254005, 0.08451498963770758, -0.25873148395884576, -0.17837894984139366, -0.5219791650036205, 0.18291044465126072, -0.08518440063912534, -0.39773658213910873, -0.2423707702782532, -0.1344420857285678, -0.017504739081946653, 0.1602321900926742, 0.10634510518016767, 0.11746990963402595, 0.39048340086083044, -0.015739529814770514], [-0.05400460349413182, 0.4714774093598653, 0.20849388347227718, -0.06119597641574983, 0.15483707507832473, 0.14192999221707286, -0.29404672896036754, -1.004644163989036, 0.2742834317251683, 0.32166575375613915, 0.38159895953756573, -0.48001865887199463, -0.5454268957352494, 0.01458827774576992, -0.21564792620371506, -0.5121194792381096, 0.6518752484033404, -0.2114683285987661, 0.20089644397466352, 0.14351271332120172, -0.0657712140934934, 0.07561633348532151, 0.06303007647103558, 0.3317582961500172, 0.2470014692590247, 0.8037996864620434, 0.004810770706521887, -0.4117596934094078, -0.09625054492380652, 0.3628137362629983, -0.3549449486993176, -0.018702822152629413], [0.3236786983538042, -0.5354974213740086, -0.19636225000566826, -0.12264692872442637, 0.11825320459612428, 0.08912487861562478, 0.2388269689022343, -0.3035175973118243, -0.38775839609387175, 0.009065905566791078, -0.08150814852376008, -0.04286614867221532, 0.0398765373274659, 0.0002604025948164834, 0.6467289338467064, 0.21581130239238006, 0.1539818167865738, -0.234615054653477, -0.2101536083540214, 0.018500010089587432, -0.08267762963388373, 0.05275053246561651, -0.06379168513639796, -0.19926422462958165, 0.11442363249159121, 0.1630050533510615, -0.13811598098549502, -0.10913133137758473, -0.09863655990044454, -0.05194998426195307, 0.11872778708881598, -0.05403916462084418], [-0.2772612925303366, 0.044145696236654014, 0.057658068776586614, -0.22656809197219402, -0.19963046457754585, -0.2989090059593787, 0.4706742004669898, 0.39839906735314373, -0.317395915879957, -0.16841759854740035, -0.22604018135530848, 0.22156099824881634, -0.02616155517171082, -0.24453471837239538, -0.4798714234368059, 0.0918788996165547, -0.558883983667382, 0.04091414113532207, -0.267420276002035, -0.13251704362049713, -1.217009969637935, 0.2799427800667675, 0.0627600739016746, -0.5103765039704489, -0.46780174010105424, -0.4312462336911316, 0.010106054246847967, 0.024785500408978266, 0.016770755130174196, 0.4055440380859917, 0.2846179787946447, -0.07024607432183173], [-0.24157728793653271, 0.010208840710208502, 0.10246633637491125, 0.242766713215289, -0.09124816077870036, -0.40518757854786047, -0.3235137914731561, 0.13547048300555958, 0.19279977107900292, -0.13643000448508616, -0.27684121280163293, 0.1926082369883549, 0.30777548470078664, -0.2258817847345645, -0.06054408703720178, -0.24268334622233384, -0.5156932945501248, 0.03307802709884789, -0.06420679254054071, -0.16592160993988225, 0.3832722936122823, -0.149498374513064, -0.08113422385283374, 0.1560666545386971, -0.2876231957501908, -0.2349885065104832, -0.2908179901739504, 0.343324838514096, 0.09669794529230961, -0.28100023614702835, -0.20469661694885824, 0.053007263666483354], [-0.03937800453514004, -0.5236000537572243, -0.2366183793382662, 0.314164510836046, 0.120199339396649, -0.16910028318785703, -0.25452090871098576, -0.06099663174936153, 0.1233087204988362, -0.1111664017723143, -0.4438469167949053, 0.33129506254246255, 0.7679668420058672, -0.24441697800177103, 0.8142285877251506, -0.14584880361289157, -0.7429870421866637, -0.06893065553652256, 0.15053524208967198, -0.35786009844298045, 0.5552985352322154, -0.5750014700879713, 0.02626443911088455, 0.6436460537781935, -0.24343787176040704, 0.09678183943242726, -0.6956951046561862, 0.4097429351410201, 0.12035777618638463, -0.3649151033524809, -0.2548182842641895, 0.04708684657136548], [-0.22791372794846476, 1.0469505422236325, -0.25467936460436286, 0.4884205499128064, -0.15214601842194347, -0.028206484117929472, -0.33219365438866805, -0.28787398822668037, 0.21055014746337897, 0.3982979022569642, 0.20802240628180393, -0.2842185298315749, -0.5967281089460496, 0.3735789407519295, -0.9528426454734332, 0.05274988473561864, 0.8698651691776033, -0.3952835233680716, -0.1693076908194675, 0.505088802790052, 0.6425051875727958, 0.26900142894385126, -0.20157274533595912, -0.27778629989635617, 0.11627023389017273, 0.24540564818745145, 0.5848214111081653, -0.03368062476719857, 0.28427966533486004, -0.25249706667202326, -0.04927943408358984, 0.12051422371652998], [-0.513002144852118, 0.9169749138663847, 0.03788905051619723, 0.24236496134247412, -0.40022925760480554, -0.2069939600905213, 0.038281948962650775, -0.795384132632038, -0.1910503204221299, 0.2141247221391625, 0.003266438681582504, 0.12537054409285855, -0.1756735289367413, -0.18753930092787574, -1.1898100973287529, -0.21602740725005418, -0.16931265121206548, 0.21462235694529533, -0.16476968154869973, -0.07186988175792261, -0.2993872699919537, 0.030565714710176117, 0.03275609870932371, 0.0657461311141545, 0.0008788492783748524, 0.9383801094528513, 0.06128371353158598, 0.3787383857234565, 0.2202458159357241, -0.14697361839168002, 0.5580381517626498, -0.2293187162360843], [0.7062557374988683, -0.612585127093061, -0.010299389932159113, -0.6705236128137737, 0.4494763818839277, 0.4040688595042202, 0.20938049319032642, -0.14112378977948703, -0.10669535417150337, -0.17324273639687962, 0.3096174535270019, -0.28556047019836334, -0.4176501392116695, 0.1448746426103464, 0.6862029484117874, 0.24291448346628022, 0.849103467079216, -0.3284077797806069, -0.2650329103970272, 0.2640487008130407, -0.4099265694704022, 0.4159887550766541, -0.1142044819629218, -0.3709972831468165, 0.3481742568589692, 0.04076242332206255, 0.2580315649565431, -0.44829058630898383, -0.35773201630992946, 0.3426704342110654, -0.030235500734479812, -0.2264403748670757], [-0.03168662578987982, -0.282344383904217, 0.2220169036398086, 0.012353397228322236, 0.1866632563879326, -0.17064375963505096, -0.16057413342092736, -1.5874533842830971, 0.4244679673494892, 0.1640762403081155, -0.14935781978355045, -0.08596392508299748, -0.18664350758788828, -0.13931015473047687, 0.2914436326939059, -0.9164048881266322, 0.25466327823096824, -0.3732135420149596, 0.38226966140043556, -0.19808521971116483, 0.044157071846904046, -0.2910491137590394, 0.040976948482540236, 0.31133649498559396, -0.013991820802629803, 1.4319332639134397, -0.5530049048207314, 0.048485231669490224, -0.1932081068738978, 0.003025877258362704, -0.219764257231374, 0.12426114091762355], [0.6158434919783325, 0.3522966937214451, -0.2969079230810019, -1.161858122861415, -0.26178870839361196, 0.636668155599326, 0.84836895766885, 0.07518684962598116, -0.915550403686103, -0.25845981708624294, 0.899799656924524, -0.7551146125284421, -1.79859327382007, -0.00574888563273177, -0.9116879188380834, 0.7302650724192503, 1.972778647988363, 0.1011411124316062, -0.5577086859521894, 0.7472332582414344, -1.2996336564104285, 0.8238668711355769, 0.07615515901445459, -1.995221486687217, 0.6214975453403547, -0.24064035899925454, 1.648494869078049, -0.6474085220719211, -0.7225702061776902, 0.7427897259346057, 0.5826924379383704, -0.775911262798853], [0.1797788876802546, -0.834157559705298, -0.038564574766650726, -0.9919107309635606, 0.7607336305507632, 0.5373303488557427, -0.05083045394907461, 1.3788493692470905, 0.4119306200190657, -0.3941324266423713, 0.5812757910607852, -0.02658170756623749, -0.06090117320792003, 0.12206228255918371, 0.8878002953248003, -0.37968107040422505, -0.09175052597392262, 0.18406253042515666, 0.36397032056950057, -0.03703709673934301, -1.1535753689728794, -0.028719859151316595, 0.06770908135813473, -0.01635422623813643, 0.20743568476609842, -1.3800312483479846, -0.10056305626921244, -0.6714796941004448, -0.17803699723584832, 0.2279856580197892, -1.0900968776094528, -0.005120747052084168], [-0.2448995847999381, 0.1487212148705818, -0.1939457622010749, 0.4919252398684884, -0.12561175958050827, -0.2690402182845872, -0.7331458936641758, 0.20325207241150234, 0.3504975171834419, -0.02598815521159453, -0.22305239654627212, 0.020639978570904095, 0.05753341504588378, -0.12108251604963928, -0.14510254071505355, -0.456836298515772, -0.25961941124051524, -0.3145956876934562, 0.019450966508694736, -0.271990203147139, 0.6799311104473451, -0.4647167340075283, -0.008408500041243673, 0.31370472014913003, -0.3233678227439276, -0.6988413823324916, -0.36468167485241837, -0.09389057436441375, 0.12303069152046203, -0.38207493011497046, -0.5333787770216909, 0.22849811255131527], [-0.546554045835548, -0.025137615522792894, -0.053848308912574375, 0.7460503054771167, -0.000814995345382628, -0.2663931989474381, -0.5726854540169352, 0.10844202907053188, 0.3546832380941243, 0.41723890848030926, -0.3222106608697615, 0.4236928315179701, 0.21808455078117225, -0.27774136920511117, -0.15777172593176542, -0.7386255036755609, -0.48327522159359504, -0.2920777971422722, 0.09764484378138395, -0.37631196918042237, 0.9501344566888339, -0.4176076403879279, 0.0743641189595494, 0.5903372186894769, -0.12241835478572788, -0.554209924415337, -0.8750616192034373, 0.2372540244280436, 0.6663103165049332, -0.10630494966383625, -0.21086305272928055, -0.10766901785748731], [-0.10771147290907891, -0.08534533327420603, -0.20183925623614707, -0.013755107724292183, -0.13011675133238676, 0.04046321606682888, 0.11215799345142206, -0.3491479298888361, -0.13631359679097838, -0.1323736725571415, -0.1001056139900276, 0.07351323174015036, -0.08745755673393933, -0.12485765980438669, -0.033596826903012744, 0.09466988541068527, -0.11023972327099732, -0.1629041149894127, -0.16108730723971262, 0.0506102775144083, -0.3061480224783537, -0.16157141267175465, 0.05621034185801441, 0.03841519841994405, -0.19247711261941294, 0.2655599646502515, -0.148447044923178, -0.039908469826813335, -0.0857818609049244, -0.0034766211646723687, 0.0013484227845452404, -0.12183269884681143], [-0.11732528507793526, -0.0636707112433966, -0.13914539793269334, -0.058527528184432055, -0.07992742353917116, -0.142060277246569, -0.017239655028522444, -0.18915043711618879, -0.18905013930078512, -0.2313697927673929, -0.06014428736816748, -0.021985234659176022, -0.06949149326981506, -0.11657471930656589, -0.18236510903152658, 0.03360181515544424, -0.13103088871669405, -0.028713282474227064, -0.11983652485521788, -0.054894657397229256, -0.30439869083639914, -0.02020662810995359, -0.030328954822611703, -0.12471134263312468, -0.3334784771915791, -0.08901636976162111, -0.16365269374592287, -0.08924901301295331, -0.20500389369780658, -0.04452091249034762, -0.1579246600388362, 0.053522218845922946], [-0.11058635131291815, 0.13767280733273454, 0.12654076351103583, 0.04704964565651767, -0.08221802810223146, 0.007389648807723415, -0.10165589090735509, 0.040536308539993966, -0.05868624768677853, -0.104378355487644, 0.12480902164166248, 0.03002481909037847, -0.13669268245265553, 0.11313493728404783, -0.1505742597559931, 0.0731955208904575, -0.12750424824115678, 0.036617712903793925, -0.008121410253317494, 0.06952711305568841, -0.06747189991304077, 0.013672765702665257, 0.044252962463888185, -0.025794968637020337, -0.038594465539154646, 0.02843634706651631, 0.24094183219941384, 0.10140053178884585, 0.03705527704597066, -0.061740434670724924, -0.030028645676592098, -0.05770579589312437], [-0.00047302249083198413, -0.11475708600080038, 0.10392040725166315, 0.08501357290868068, 0.31557144749320687, -0.014434382031938246, -0.0461677727493629, 0.3985457313987899, 0.15480894472473913, -0.05184328694947373, 0.10794197549270935, -0.006065779158075019, 0.09935945658608591, 0.10261961437569309, 0.2495843686997801, 0.004964167886870558, 0.010899270976034886, 0.07879266390499656, 0.23430382959442347, -0.015813391512149107, -0.007156901850316243, 0.11487144961176335, -0.03236608406975511, 0.08043568575332485, -0.07495326562985749, -0.4388535702834387, -0.08878423940130872, -0.02882871129657815, 0.009572404181088474, 0.003345661468142157, -0.29045367129373073, 0.060001435110889755], [-0.39690886016677307, 0.5127103679113771, 0.16433964631009665, 0.01351556774035492, -0.33256097550554997, -0.06718147726832123, 0.097190352690026, 0.07520809091948058, -0.2387365295011794, -0.18401875275586382, 0.010561706975180671, 0.1937111137115082, 0.07491144766671066, -0.05375598096197055, -0.6889642442629585, 0.2047317018161464, -0.5989588618225722, 0.2797218712729525, -0.29894906806510746, -0.01001878487931828, -0.48500398537930073, 0.061283713873464485, 0.17950409906652834, -0.5401690131388439, -0.35499654197314856, 0.04025174577312494, 0.2651303824069761, 0.19163523653153625, -0.005200798654948911, -0.02133906258699317, 0.18996321226284296, 0.1113148238795758], [0.4245849706686976, -0.8686122062060346, 0.0162710156810588, -0.6870284924486972, 0.45617465405577545, 0.3565070522277011, 0.7057070994157336, 0.514968682049968, -0.026292140238977652, -0.35759125570163636, 0.29490040378026633, 0.09008367224505714, 0.29812537528421124, 0.001882020790774706, 1.102864641559215, 0.06333277311448748, -0.22654475670350388, 0.16231252392996728, 0.36093348795059144, -0.2137215665034624, -0.8606713797705515, 0.24874141836803493, 0.01272690400571898, 0.09689415293939811, 0.5208468975998973, -0.2963206777924116, -0.0614726913339956, -0.4773392917447297, -0.23309040628932545, 0.20707672250591294, -0.0324272626921215, -0.09327312943040016], [-0.17729936424176085, -0.07325125119727831, 0.3404554499213481, 0.5676404161969081, 0.16692792716220042, -0.2769751537858354, -0.3885925160134559, -1.3756175983556471, 0.48369610217935766, 0.5172393900933702, -0.23833918725702025, 0.3766949984058297, 0.05468219735239497, -0.23747546145561899, 0.3188434447233151, -0.983239781808687, 0.2011353539306017, -0.25950664950148694, 0.43598095585948693, 0.00973267532764961, 0.29743945104257224, 0.030371095721461083, -0.08358593137555012, 0.9000890994018028, 0.0950352221456492, 1.1168162152563406, -0.9014100413833399, 0.38931292776153714, 0.25006796932824643, 0.3644876825486261, 0.04753915259010275, 0.0663490155392179], [-0.24214350358660555, 0.5918374259228075, -0.037612567048957844, 0.08058704845241861, -0.2223433345881308, 0.014984660968547439, -0.06922349067088696, -0.39623108656068873, 0.06979933923821635, 0.18545072550966335, 0.11962049491613941, -0.05911487891120828, -0.20866452619095827, 0.07943396347551002, -0.5434374196822434, -0.09730690779586668, 0.051302379648757675, 0.2310535553354709, 0.045874280390473525, -0.046842361902537516, -0.12046188326955677, -0.012290744285419278, -0.0016753561429926744, 0.10732684902401549, 0.20880283046090906, 0.2633953874206208, 0.18968465683974772, -0.07482335437735763, 0.170198226791955, 0.17617140416326235, -0.0010079865969341367, -0.11154788330695634], [-0.07691911526211155, 0.01798539286136262, -0.49625269336707384, 0.8221338708803927, -0.21416588407687234, -0.4910178943341878, -0.17693321412427077, 0.6235400550751347, 0.05729341350600792, -0.0014007918961075783, -0.701582592677436, 0.58375663940276, 0.7427712680734172, -0.12168379469239812, 0.34014755105305244, 0.012802817709135828, -0.3078833682906931, 0.08146816367793765, 0.09474050801051837, -0.11206009072836771, 0.4191097083444427, -0.5230915975387778, -0.009281056856103856, 0.8361646583192249, -0.08181236337967672, -0.3591828787766046, -0.6610381159533854, 1.0705796513442385, 0.7791486436070966, -0.8630585245101352, 0.25784839956182565, 0.04337557957812299], [-0.3727012864119143, 0.4860958091361878, 0.01814705820031179, 0.9165507779597165, -0.047241969563165, -0.17613942132592744, -0.6839137114065441, 0.06831249129378558, 0.41471988482166355, 0.5406340879343827, -0.22796818524085619, 0.2736633872900205, 0.03938650683761151, -0.3193086505771878, -0.21443126157382977, -0.5157503166836996, -0.24367219863499362, -0.37686456957564085, 0.2483939052550056, -0.05529306591753765, 0.9726028940293154, -0.28208340765349565, -0.016395790759614386, 0.6573281178703885, 0.12759261205035294, -0.2893917456527549, -0.9062736316346559, 0.13266925563658896, 0.7681432320047362, -0.1572481005030488, -0.044383959381783626, -0.12925123883549328]], [[0.2536487782308371, -0.5853081273270142, -0.6510147913437243, -0.7394948156459056, 0.37439515889210107, -0.19507553522577714, -1.3034001373319253, -0.13416198614458752, -0.47340958340738204, 0.7115194172221881, 0.1816497847017277, -0.4510831781625028, -1.2280452176956183, -1.5205311720497972, 0.6777008914355339, 0.03573617852158888, 0.64474339219113, 0.1146125109649876, 2.166393046962948, 0.4643103713273666, -1.032758455526891, -1.0342585602084677, -0.189267073033981, -0.38682625011840815, -0.03700726698190191, 0.030079486864919285, -0.44761493001462616, 0.9787430354494235, -0.13788832658318675, 0.39239463990536727, -1.785988695627731, -0.41511699975107064], [-0.10205034006757806, -2.01193179561881, -1.3815046879743724, 0.48953350513805555, -2.5297006418742414, -0.26617588277933824, -0.41199214440154874, -0.34148383812444005, -0.05685333380967346, 0.34080280189982853, -0.2070589648107023, -0.604172171046696, 0.13893012725953602, 0.3654428164113564, 0.41244651944634825, 0.7011235157685598, -0.4880772719268684, 1.487943982970589, -1.2119740941523809, -2.8630418318845448, -0.23567019887112545, 0.6982027589852348, -0.23051632788887189, -0.4514181150401136, -0.19664276999937402, -0.5407089161003705, -0.3831033135344714, -1.7690363325987473, 1.6734055709645956, -0.020027576360686555, 0.5323518836754079, 0.7867131905798185], [-0.13867091517607769, 2.181788920836986, -1.5441169182454348, 0.6160985357543773, -1.0870804295512166, -0.29996166561578325, -2.042045645849994, -0.702587363245794, -0.6054064310994638, -0.9462885064295393, -0.40883720655909306, -1.075278064134074, 0.4309399720210328, 0.4759648876864706, -0.6119926551701389, -1.8197779129448661, -0.13366423846895842, -1.6902097880812639, -0.3327719114278806, 0.858492938306571, 0.8216467280316788, 0.8047260945256623, -0.6903202725360275, -0.40409775325427055, -0.14328541723392557, 0.42773412109377673, -0.8603355989713632, -0.050178138302120125, -0.6660141508776954, -0.6981226034956806, -0.12018456607630532, 0.3645829023335998], [-0.1536178504557445, -0.19717172742803082, -0.27728368957565386, -0.3646636740439318, -0.5532684851288403, -0.12328754641024732, -0.4857693471139681, -0.607308902846721, -0.22368883755013932, -0.3768198651428692, -0.39590095135807224, -0.3004019374778052, -0.2665658367811744, -0.37227752977382084, -0.475185500255159, -0.35170823849196303, -0.23342262870061573, -0.3480983243553598, -0.16125121762968073, -0.27305310276201056, -0.27404854085664077, -0.2944924931856628, -0.4237496683555026, -0.6823107739324203, -0.20172184931231524, -0.16499681593996662, -0.4805632847409334, -0.28161007129582794, -0.15601564559237233, -0.2870974202359315, -0.5617352017715921, -0.06533426757698554], [-0.44009853984461195, -0.2999017686199645, 2.108588477127137, -0.1923824765505531, 1.0312910466740415, 0.05096301425912328, 1.7439687173596516, -0.05739367701777273, 0.778753851242164, -1.0828692088680556, -0.14460699526634363, 0.9880382014650241, -0.17450196489637035, 0.4338192442716076, -1.7007854301110235, 0.2862875523247254, -1.4186056039797512, -0.20210054498579594, -3.4164065600575912, 0.10529050435189331, -1.0515975801935193, -1.4534707224433192, -0.008947651470624433, -0.0809299885331629, 0.06377202536643964, -0.035689367421927215, 0.6006869966875766, 0.48804490349005836, -1.3314191724773377, -0.16470508718871663, 1.3777379523322484, -1.695908854190057], [0.4650274181736429, 0.46081720484784294, -0.23396159291799656, -1.574105415268282, 0.7573397136573897, 0.007851317472180583, 0.19204678006917372, -0.469292854257599, 0.16848923538414828, 0.42118817558937127, -1.2227692987970564, 0.49549703696225983, 0.331009626931181, -0.6488972324669073, 0.7698069932212699, 1.3293029319831973, -1.0015229863927995, -0.25597223626641324, 0.007434886884858497, -0.22276828462109458, 0.3311898777579062, 0.1911389849012613, -0.2028278481169197, 0.08558804962080507, 0.28868308862941694, -0.006710425959200677, 0.8069542934883998, -1.2272763599769654, -0.29374172374067864, 0.8009857033763806, -0.01649047385947575, 0.3352640248126213]]], "biases": [[[0.7553256029196326], [-1.4104384772299146], [-2.2493944271531476], [-2.8459406812620833], [0.6109288146889373], [0.08478545913321352], [-0.5405714937007793], [-0.7936133623313181], [0.41671554731969146], [-1.029469579428625], [0.30143787140472617], [-0.4934258224881413], [-0.47829344327764994], [0.8656238238836768], [1.537459456599812], [0.7423769961681461], [0.6717115754100459], [0.005516034324987514], [-0.14254544759411253], [-1.4813957837531957], [-1.3606151449209831], [-1.4245725821174837], [-2.3008394930971487], [2.018418538284356], [0.8471793504972647], [2.355061201668006], [-1.3107503627312356], [-1.3381247451025735], [-1.731433268558362], [-0.6038878117104838], [-0.3502513547540619], [-2.224840055795046]], [[-1.3547418803959568], [-1.1525354389803542], [-0.1130872512290813], [-0.09256962167942041], [1.5293668976266461], [-0.7248139638126658], [1.1342882441589166], [1.7653109920594694], [-0.3928679911823321], [0.37008038598148396], [0.04735369782895249], [0.3865657209974279], [-0.046733209364867016], [0.013497863997322262], [0.13683996338799143], [0.5973963992197721], [-1.0448282358470489], [-0.442799065274875], [-0.7368720738704362], [1.4714043308833689], [0.12613997727372825], [-1.1127956854084176], [0.7074192172962563], [1.5458402122612893], [-1.9573979936972936], [-1.7435156538188812], [-0.03720025566886792], [-0.572274337016204], [-2.8070291797942715], [-0.33920863146334984], [-0.05275470434984567], [-1.9245490217469665]], [[1.178728029104235], [0.25934096489261893], [0.40221867569209585], [-0.8752426348532958], [0.014574487459231535], [-0.5596942253455108]]]}