{"layers": [10, 32, 32, 6], "weights": [[[-0.00699799093599933, 0.09740316107039351, 0.9870893459206023, -3.6227456148494435, -0.38129733692475604, 0.28565917743580327, 0.13790095308226946, -0.7183185209966311, 0.281543736496453, -1.081526250136476], [0.1119454308762607, -0.05986176581743384, -0.1866465547766776, 0.6697606226879507, -0.10978555195046394, -0.20884278900275063, 0.03476799813785049, -2.1294001131814295, 0.02825011073425592, 0.7728181941515734], [-1.2408725618971075, -0.14934959263795214, -0.70386034805607, 0.2582464297359397, -1.316145395208682, 0.05897435552525676, 0.029303242001002063, -1.550895512295286, 0.052759092976932355, 0.7692885684711113], [-0.13457217244215355, -0.25184227942053583, -0.2113914668023388, -0.21082586135584983, -0.08809939062315532, 0.29308151552609296, 0.10727800644167555, -1.026474772296459, -0.17294108416240336, 1.7459384193028236], [0.7125546906661913, 0.5424601146433761, 1.7035244625908397, -1.4994394236898945, -0.4384841941982155, -0.536083888762871, 0.34457264822794265, 0.300761194249969, -0.1964018228779308, -1.2245733466855329], [-0.761530136882061, -0.3203324875980429, -4.024852428931871, -0.6353951679261826, 0.5102408600930843, -0.03173955919139929, 0.22471108992941388, 3.9225846000778066, 0.0390708101963723, -0.3810772557420922], [0.5324533201625186, 0.17470602169973437, 0.18716686614177808, -0.3038572561284058, -0.027171331370449164, -0.1956659566678595, -0.26777209116697903, 0.982357370464973, -0.3249354039198903, 0.2137463228080014], [-0.030329800029188614, 0.38248767036839787, 2.588896615067545, 2.564051340084912, 0.49788415004473047, -0.8432421862951001, 0.16050252377799368, 0.7842121367290463, -0.0074023623994609565, -0.3073039176560034], [-0.8900180794761688, -0.005369852848824451, -0.12324309186740934, -0.8013962645611648, 0.372564640231068, 0.25514083427231865, 0.4451962992843664, 0.26240325144201354, -0.29652109694309314, -0.28914652692587645], [0.18428938504388429, -0.10446338366032512, -0.04727157864508757, -0.1657043626204403, -0.0796948922411437, -0.16410075753343445, 0.30330117084521735, -0.09778166478789672, 0.0543193934841255, 0.12224892910287259], [2.1649153360432454, -0.28297770469061334, -0.5932543704829072, -0.6513183859052444, -0.2954933965849485, -0.5333928047658393, 0.1137524001129448, -0.038779112449719835, -0.01203779250647811, -0.4200242349735147], [-0.17401662686730576, 0.11492594236458736, 0.09199033591217864, -0.5458048726860723, 0.32300474746782915, -0.15548610788816036, -0.47525569044758054, 1.0890335363948094, 0.13901037184268292, -0.5567909495944026], [0.6972369798047336, -0.04506912555049208, -3.57879791623686, -0.5898884943752968, -1.0649390635688936, -0.0721354392153903, 0.2050926529732355, -1.4684923919101656, -0.0531204229688413, 0.111336638756167], [0.553125458448385, 0.420879748631485, 0.016695110905714357, 0.6297521993877764, 0.4238870533641721, 0.2722000144418678, -0.6973450108502017, 1.2270899830565718, 0.5374227294536637, -0.2266930115886162], [0.024916720029121105, -0.3013753961076472, -0.8930066339370422, 2.528156671447256, -0.04492436999328349, -0.17927473281519438, 0.023617889868392025, 0.050440342367788916, 0.053522263536715714, 0.024532043197019907], [-0.8636061195951976, 0.004888508965490587, 0.28543356085963045, -0.11991817158130338, -0.3069111954319048, -0.21795912153197192, 0.7766711050080474, -0.16002212455639503, -0.16714498945762143, -0.03132069416708659], [-1.0518083102525642, 0.324311776096703, 0.6538392770562096, 0.34459110592877934, 0.032964531058476465, -0.31806710228211565, 0.05452739777085855, 0.3721727305447825, 0.4662097939039798, -0.691457911710771], [-1.9558691728023114, 0.6750666233609931, 0.6809463454888751, 0.36545365796343887, 1.0584926250061801, 0.10858079383924331, 0.048202459381708904, 1.5186159071838237, -0.8725517060280893, -1.8204828399342459], [-0.023620141135617043, 0.13833281342538528, -0.042717361781858774, 1.888770496908662, 0.13707015764967329, -0.19114352940157894, -0.7210216185807642, -0.9367587604970729, -0.47035914837973875, 0.24721929671986165], [0.18781350939097063, -0.257017315194778, 0.1542716533302653, 1.9626785536871476, -0.8828494573933806, -0.39709873605956153, 0.1996973964081439, -3.8103459282787755, -0.12551196896994357, 0.6684612829520034], [0.2256025847120687, -0.1313664757852443, -0.4240210224326735, -0.09103673316564587, 0.1815401655823304, 0.13583167537611682, -1.1785881633622068, -0.28918369527130616, 0.11165237990522194, -0.8109572227958646], [0.3452497543797971, 0.20401913504111072, -0.24712473687776307, 1.3354007475306875, 0.13017643523062145, -0.4946166604699528, 0.1742900296819713, 2.4725132833484267, 0.5568261301658043, -1.134109993989131], [-0.670740635128674, -0.04917891775379569, -0.5275402624901891, -0.22600896716393695, -1.1197495150893113, -0.007174854560754808, 0.14744631169069364, -1.7173995696867108, -0.07026879608422369, 0.71883737082224], [3.45148947185495, -0.2739792988714445, -0.8677655521312546, -0.4811098388657749, -1.0142155166624067, -0.5845188262519175, -0.04661367235069133, -0.7412881749129188, -0.21437673007946972, -0.09787749349671775], [0.4047978701598479, -0.08759645755436253, -1.1600505592446886, -0.3954447440793274, -0.13654760634341329, 0.28934521708678584, -0.09107308389238612, -1.8089126773264936, -0.14046711118684496, 0.2598146119669831], [-0.15653619392492063, 0.17428181220255928, 1.5383683053840964, 1.159941705972745, 0.12922761726800264, -0.7217599017821356, 0.26075833282020666, 1.9314382952808633, -0.14640876558590063, -0.5273586621425318], [-1.2655430140026755, -0.19093257478282463, -0.724686547220109, 0.651663663828697, -0.8961735373383859, -0.24592622285590052, -0.18639909471604388, -1.380862833899411, 0.4363584315147939, 0.03021502099782753], [-0.032381705997068494, 0.24189668444537768, 0.6345446244280181, -1.8872731996931786, 0.2222767888545463, 0.04492873183895286, -0.36278297409638877, 1.0576408012517486, 0.17234509149092322, -0.23780494217455891], [-1.510778084622746, 0.08770411325972341, 1.4819377725172918, -0.4687192574678502, 0.5673169330149246, 0.8693950144357533, 0.10738817619195652, 0.7875639938785213, 0.11680798134349131, -0.7352592720574973], [-1.0239816040461054, 0.3011552092767034, 0.37488691372580385, -0.5146819406117467, 0.5916108354353836, -0.09663232321970486, 0.012992927140889166, 0.9639722933178263, -0.7353164081430991, -0.6282115515857251], [-2.8107753123943064, 0.43360927535204796, 0.8995495101910833, -0.27053577761828534, 0.4124498729554219, 0.42436366197809333, 0.14574234967191563, 0.5207116085553306, 0.34430184821152504, 0.041340997629606906], [-0.24780267955329283, -0.3142871803194465, -0.5762282618629964, -0.2241956380127643, 0.03727958810794986, 0.22622520060439513, 0.09284853110186957, -0.2851510838340129, -0.017273818178242716, 0.6640625280996765]], [[-1.3239698481955515, 0.159118702782916, 0.1679090082970666, -0.022687706831792193, -0.8031289384705081, 0.34541824260502674, 0.018813531451691137, 0.48345097416348953, -0.20732039663560686, 0.09202226258809554, -0.42213025340644367, 0.06057918364607245, 0.561737618594004, 0.14746825415835493, 1.1009256275804369, 0.02744670265323253, 0.16034397021458335, 0.1376221929783359, 0.07564150413769252, 0.5752716103811126, 0.06713183783221516, 0.13572135694257775, -0.09563055039230207, -0.5402636847646574, 0.12445240620790592, -0.08219392191858481, 0.07873638977127262, -0.5367547504559729, -0.31234087225892626, -0.2134358031036883, 0.20884546002764035, -0.03306675060838484], [0.17276695492719646, -0.4679564239987374, -0.900388670080396, -0.19476703048944163, 0.4686388070056543, 0.8180915590922171, 0.740537681229542, 0.20157867179007133, 0.2662072185361723, 0.509936158343785, 0.731423884204699, 0.6407296913977745, -0.3741157305402568, 0.6852990167878151, -0.2504985912949324, 0.4805920403144858, 0.05200979516778211, 0.6417328878560693, -0.8960475332954231, -1.0703815786705067, -0.13931513331001222, 0.32087465472275545, -0.6331184032274981, 0.3857104344793033, -0.24449495470739763, 0.47519272629088016, -1.1537228631002552, 0.8518183515462998, 0.26188589512109706, 0.5768469666218442, 0.041244741432484605, -0.10027437564193944], [-0.3667994611494113, -0.11376272753609701, -0.23363229513602277, -0.012258579910683234, 0.19092624721566231, 0.021466562876887155, 0.3103187617221979, 0.5750080598108207, -0.05860581845164679, 0.20278529397377199, -0.0027228094225112505, 0.1461024833464756, 0.19532190870267174, 0.14296449985403328, 0.422289660836587, 0.06187281032615438, -0.018097253642819403, 0.22560318299500443, -0.06568834277802273, -0.021823687813115868, 0.005624211051439196, 0.37339848976857515, -0.1656665706030135, -0.2592921729233294, -0.05670998483349403, 0.20557447713199356, -0.12534365714071663, -0.11474379240904824, -0.33893632274321817, 0.15154100916782492, 0.3148100629002021, -0.08645757557986976], [0.4084815930231053, 0.16408230993952727, 0.18769185285495446, 0.24576642342700591, 0.03682471058832216, -0.4158603912853107, -0.12055592834563994, -0.07355107899634078, -0.1470156747114694, -0.13096982636250856, -0.3276704919750561, -0.10918829557620566, 0.28449912462439353, -0.21798935867422356, -0.2297273826252015, -0.0031007931167445204, 0.043603291412234894, 0.11894325588987965, 0.41413620295207015, 0.299728362841361, 0.07086635592090468, -0.2915114035617289, 0.30551482856755785, -0.3533299664352506, 0.18842995538684953, -0.18742430019094025, 0.11871628423895766, -0.06059495136671423, -0.20983819075314575, 0.10109309412166678, 0.1980328024005391, -0.08337927431538228], [-0.1264385303982202, 0.012696894180093518, 0.0022312536408122838, 0.12170342002218552, -0.1883847502294805, 0.9073465246497058, 0.22594130220203065, -0.5056866594787783, 0.03838471474732034, 0.03267844094451908, -0.02758091305468597, 0.31484809074949094, 0.4008392523749244, 0.17117469913460295, -0.08207157112200253, 0.07278820752059642, -0.2119874354595574, 0.014023836283518698, -0.14551683078201813, -0.32015714067606793, 0.22730293808402594, 0.12790217694624298, -0.032701676607809954, 0.010998930130567885, 0.08881812358763054, -0.12039889476110424, -0.25665655296800177, 0.3082970248541084, -0.34964953736335486, 0.04378656904878495, -0.15859842691965642, 0.017573439178586364], [0.5408856055142581, -0.24398324064712176, -0.01271509049897702, 0.1672419603997245, -0.3110552569451992, 0.6874600927705985, -0.08499912976755654, -0.6440976958618401, 0.3598652766173839, -0.05286050055935456, 0.2581360037318398, -0.021290743482940667, -0.15903546369079286, -0.06977583092858242, -0.8086609713494477, 0.1410560002632218, -0.018289586550631693, -0.3103137210339527, -0.2722435908833961, -0.3610920475816409, 0.17606920448613977, -0.17076369027698138, 0.10087773753705803, 0.43653960717757195, -0.09345705565450554, -0.08927626460883574, -0.08440917562948481, 0.5236646904173736, 0.525110668213408, 0.17366297627287697, -0.23441429207954814, 0.3129062260810623], [0.03543399444850216, 0.10186840717292034, 0.021858377681568363, 0.28608957643572064, 0.36385651952661496, -0.08683993583326202, 0.46428415706456583, -0.17292781487978187, -0.3486730207890458, 0.15370618422939286, -0.34232175487390254, -0.11919885124160669, 0.5094709462502942, 0.09664818499718067, -0.4801804396163038, 0.06524918977130002, -0.4821966404245981, 0.14629688200805652, 0.006680998454256146, -0.13316644220697463, -0.011969153783522764, 0.016574129917416646, 0.053834228527429556, -0.7181236048821275, 0.005297924056812381, -0.008031866980074681, -0.07017127008614163, 0.4719019150394461, -0.9522168065726659, 0.17033109169759225, 0.48134235561227706, 0.07784768464836249], [-0.6059375881498085, 0.6921033923683682, 0.48968957241079103, 1.029038439511888, -0.7934528788915776, -0.12069112480299346, -0.20462477982426672, -0.8073836113078752, 0.3672514940903582, 0.2717686485784427, -0.6043101854371058, -0.28709461375212314, 1.15042782347867, -0.46045057962898667, 0.06774109480743323, 0.22336365212395518, 0.011814023155543847, -1.1076210322800273, -0.19756844121280248, 1.362542404401755, 0.3656046282213395, -0.9838948191237733, 0.5760395744091351, -0.12582840331562417, 0.803093680776183, -0.618226126659707, 0.20757445069352126, -0.4663294428975614, -0.05876365823458102, -0.49295431722098126, 0.2008468305547754, 0.3133528059033656], [-0.8775872505162639, 0.154983437365237, 0.07491141042092568, -0.2986914546645309, -0.11992612815559085, -0.019859258898452685, 0.11223463609074386, 0.6103640929058733, -0.2832002650503688, 0.11563685754552389, -0.3006011147357967, 0.13631794961629765, 0.08617560011043578, 0.19832660732373156, 0.6212514978306316, -0.2560730207497545, -0.04856921164002347, 0.21800113480517438, 0.09555245044355413, 0.10768904019442473, 0.16824346329386058, 0.20230686727946307, -0.15948544168078152, -0.4189061390593958, -0.06866590531323985, 0.0820860755730363, 0.06400491108806673, -0.2737555291561117, -0.18164011965710727, -0.009419937189613849, 0.21929355290574537, -0.14078622338400926], [0.10861235333689936, 0.19089420687902087, 0.3124809722092246, 0.08331162919665777, -0.12670400284735506, -0.11575573172602312, -0.24434072444907326, -0.1608740659198635, 0.03970435918469947, -0.08748382673302144, -0.10714442311756336, 0.004474370002087272, 0.18203392006591881, -0.197874926499708, 0.041825136971746606, 0.021763548285235804, 0.019090973404541103, -0.1263338823272717, 0.11800298806807769, 0.2683238949691478, -0.06064921925661014, -0.18597961592422307, 0.305411635747305, 0.07949554860472983, 0.1435496417930319, -0.3036281474583109, 0.25807298334107426, -0.296849413333578, -0.012145265590194765, -0.00470997210761439, -0.14135732815848545, -0.10409625367224326], [0.942642055307797, 0.012970831280780014, 0.4181068152796573, -0.06436189751914419, 0.4821034422270221, -0.5800695812535834, -0.29679153870904884, -0.24738425195249694, 0.6022028782858149, -0.11251568748598349, 0.05325797206943706, 0.22145498963296886, -0.519805599425859, -0.12509157602022672, -0.45696959115516084, 0.33365309315321795, 0.8046789586154492, 0.14804589077389127, 0.37650526847196014, 0.31562252812862535, -0.13923242012002046, -0.4167503684018773, 0.28763108804533466, 0.4466473918852562, -0.01384711579841983, -0.1146915965000254, 0.4323343297743197, 0.020892599064669806, 1.3032000953685368, -0.15559663444610672, -0.098818191894038, -0.12324341964451603], [-0.42687864687640675, 0.2935713482157328, 0.1794537093232602, -0.14906122622915702, -0.11217223317162377, -0.07710629680943086, 0.07645107455824962, 0.24396462435844973, -0.35465820123590047, -0.021563248506815454, -0.2331591441640176, -0.17511246208674858, 0.34982564785578124, -0.03519686628661313, 0.5645101189393498, 0.04906706774537361, 0.17273275495087462, 0.14883045472810155, 0.44306078819055544, 0.604231517815893, 0.13301647795327648, -0.028781399178752467, -0.011362428890372417, -0.10880633047974361, 0.12585494433724298, -0.23683507150191624, 0.1923213494276188, -0.48674651679496017, -0.43977105988196025, -0.05447174557731038, 0.07139040889283547, -0.03326831265448905], [0.13671698293684134, -0.19873867805230291, -0.15120432226982145, 0.022780178195459792, 0.09502363819236781, 1.1032280476344702, 0.05967790197620275, -0.7031059996065493, -0.10649717254805083, -0.11206037395869839, 0.15226613508244669, 0.07068776118064313, 0.7411429385838743, 0.0208758515014088, -0.0009774572708862116, -0.31011030258980166, -0.5327801609323006, -0.30593633901937206, -0.19452323135087607, -0.514453760372879, 0.43263251427068394, 0.25341507979364336, -0.047867978180159754, 0.04836157045135883, 0.07355475102470103, 0.03820143225419402, -0.18460429388110705, 0.11176879479538644, -0.4346056500201294, -0.054810962005173505, -0.3298600367085012, 0.02641578048623234], [-0.411622114819879, 0.04944515349091032, 0.2824548575265625, 0.07109823877319957, -0.49155444239456747, 0.38697494551863, -0.07025929925858192, -0.44722135644804845, -0.17701827311723067, -0.2447024414005887, -0.19744998054169396, -0.08960316908153816, 0.7721020905015559, -0.04773181659740987, 0.20072150654851606, -0.1722433214835543, -0.30491534399269965, -0.12812856667084419, 0.19504186350396438, 0.1844322229174734, 0.32878197437491613, -0.20799295748249158, 0.15062579112256022, -0.29519286111488696, 0.2025187061050807, -0.35560579548731663, 0.02216340480857304, -0.04006666457058395, -0.4734042678447183, 0.08536941019514524, 0.06514487778787736, 0.16248326384305356], [0.0786723917463463, 0.43125596063021476, 0.6310832690254664, -0.029192416427572414, -0.3956697665291105, 0.38963852840261126, -0.25029400546317615, -1.2213759266306103, -0.24317736391803435, -0.01395508091168715, -0.014497076361246959, -0.2644488808823868, 1.3883752295404084, 0.11016046829861453, 0.38482165580740113, -0.056050222429278734, -0.30299200492609446, -0.04712248612231114, 0.5887945681076736, 0.866151453851773, 0.2758484651964133, -0.3028625969418178, 0.3778221322111133, 0.10312966363967356, 0.7541531994287455, -1.0616154089658523, 0.6971583007709073, -0.42008622400657103, -0.5692195835641805, -0.015532490719926136, -0.09459304705986553, 0.23870277221500785], [-0.315610375293514, -0.13261128621955692, -0.06428484955786298, 0.05868811817425509, -0.14074624747878553, 1.0783930362100655, -0.0008108268395736248, -0.49661954575598266, -0.11591103350378888, -0.1598950883719574, -0.003221370312771056, 0.11563478866101505, 0.8286778250536346, -0.03625581070816433, 0.25455784497399925, -0.20733947628669427, -0.4594897829599586, -0.1460785308550387, -0.20860522122611025, -0.19883964343169253, 0.30221706361272765, 0.3046071507387493, -0.047812742025735176, -0.004764508870644892, 0.08681365498762209, -0.07020379048397947, -0.336820245718661, -0.04325331432576567, -0.689319846549488, -0.021188868883270668, -0.21716901939252314, 0.05915115508342258], [-0.6419502711268802, 0.014769771426148118, 0.06021847883444055, -0.04260404371465005, -0.5269986180259517, 0.2920308753767027, -0.1384536926345691, 0.2994421978570778, 0.10220287833386175, 0.04085919193015265, 0.010372281523185653, 0.11269740396245854, 0.05008244023979528, 0.0647394921782706, 0.6680637464875425, -0.10666285794634969, 0.09209845021187067, 0.0073062142716587815, 0.04862627348065452, 0.20513947499293053, 0.0988218718534731, 0.1620997566888182, 0.0029911007582034063, 0.07225837706764399, 0.03783116789933932, -0.06103911661793779, -7.569510731846423e-05, -0.321715823975226, 0.1958241679053409, -0.06107555242096292, -0.04062897546710119, 0.10317246823286699], [1.8041204517529204, -0.49253039564046, 0.3179458258293385, -0.12082672597093977, 0.22301801028441784, 0.252703849958317, 0.09295159548133516, -1.3015776681240363, 0.5177547362125963, -0.40653466858873893, 0.6796389929537565, 0.23048997780929595, -0.08225699815190492, -0.9200863179734743, -1.523298215241585, 0.10855005028657261, 0.019722484476753097, -0.2593419543295462, -0.01881713290196685, -0.4399779636355819, 0.16544067491746303, -0.6056267584112287, 0.36261400962912327, 1.2499425431172206, 0.017716538372052764, -0.3635003774638674, 0.10288352654647907, 0.4847355104342107, 1.101017282578985, 0.40235403315577073, -1.0124374909943974, -0.010514379512047294], [0.2761449931560818, 0.030571144031281836, 0.4194068547382066, 0.12554330665417202, 0.15787480246567093, -0.21537367568675095, -0.2804374070358467, -0.459940630300396, -0.002986503165655183, -0.14920847977640295, -0.3113061729039471, -0.09426690575765383, 0.35276867281304986, -0.20265730960313583, -0.19837713981571065, 0.0332751393305668, -0.03370492627874919, -0.01701026625432493, 0.2689108164077675, 0.2488861661660065, 0.058952045663577084, -0.25249336014761875, 0.37437916678668753, -0.32240284952274173, 0.278800922409821, -0.30329571761251384, 0.2660158339206799, -0.010483892845493236, -0.019508840896449938, 0.005330981608460913, 0.14054078284766358, 0.10118724802719561], [-0.2952016605497915, -0.15825552678073182, -0.2454871276702363, 0.26415158385088916, 0.2403259185145572, 0.543494027673009, 0.41312495373031904, 0.13819326369648463, -0.26129757497487144, 0.19617275251837418, -0.029486811655869537, 0.11653794312640324, 0.002778652511488754, 0.09073823956314638, 0.008546202985482485, 0.00253272531183224, -0.23283404150371018, 0.00893831895178641, -0.3058144955057487, -0.4543191071777722, -0.028147246607206425, 0.4397760258930494, -0.25792114888643813, -0.1883292948344239, -0.23866827409788588, 0.31505394128744185, -0.2746732786730295, 0.25224027502936636, -0.6814293089047415, 0.21527852861425464, 0.11561217305512256, 0.12321576584945272], [0.6511150368343436, 0.871507932095024, 1.052272797870972, 0.6052047931524444, -0.33309792304985864, -1.1201430537393937, -0.01265281268428165, -1.2388228685537812, -0.35596575385529877, 0.09834843447225337, -0.2558043148601882, -0.6483432575031491, 1.0000001694217577, -0.5514725205908559, -0.16083058800185676, -0.390719653775308, -0.25462212983232246, -0.8190390273695882, 1.1415596951735973, 1.717021049646238, 0.5354940456154853, -1.2087139736909982, 0.8837294472646321, 0.19364934891780655, 0.9511956446983417, -1.326221763399361, 0.9223886501670093, -0.6510933187227549, -0.4607763252809663, -0.7624017638296066, -0.18469724392722042, 0.24736694598269757], [-0.2490430228318046, 0.05504485527755275, -0.2058535522101854, -0.11998424410371732, -0.023932023870326224, -0.12084812703564439, -0.10402901656586062, -0.0053974601763782494, -0.19913794479731695, -0.15396949344985264, -0.03620907412291299, -0.04015120965184493, -0.12961262313025132, -0.10369699223068327, 0.037871636232701664, -0.41822860299753817, -0.02532684134035251, 0.020296981688368288, -0.0009325392531619388, -0.2080867776392815, -0.15026797197645458, -0.11455089702311184, -0.13095695944683722, -0.16658938794191402, -0.17346609949031377, -0.03166859713214921, -0.07883489719131416, -0.27283903937422455, -0.26701305439398487, -0.1355533450518466, -0.1085775167407644, -0.19385645160292553], [-0.7624646939178455, 0.1176302147550566, 0.41922632491858297, 0.09098143685731483, -0.693735306988136, 0.48704410187224195, 0.2796220045813399, -0.12055790945513056, 0.1636983636428727, 0.10308118444449352, 0.9717445485004074, -0.01778776475890605, 0.09791538361669921, 0.45044087008449907, 0.46538691805375487, 0.22163619596754888, -0.5117688584264836, -1.0140063091960556, -0.013209214190766342, -0.09905595095009764, 0.09399849366364608, 0.08709218014258792, 0.20095456935577988, 1.4727487768475527, 0.16866628235666956, -0.14544208773100922, 0.3589282902558377, -0.3364633019477849, -0.4422337505342519, -0.5519460474827512, -1.2475437440689832, 0.2554652713968236], [0.48367996100430183, -0.7741319458419285, -0.546970220935623, -0.9128612036135333, 0.957808753549753, 0.22920250621376284, 0.3762698658762635, 0.639025271900262, -0.6509594954532202, -0.30765165236499964, 0.46288001109671223, 0.2858319142807902, -1.0638541535884078, 0.6468179122086407, -0.5122328131620437, -0.260311506105639, -0.21619984407572773, 1.2970575589742908, -0.010629544864972607, -1.2979428335660588, -0.13592127552204625, 0.8617470390742998, -0.3986681472621507, -0.36210351023309156, -0.7058264633792947, 0.6090858083710425, -0.2944211670381673, 0.6611274689496128, -0.6328954668793617, 0.5217248774050207, -0.09416215325018525, -0.34386365587325374], [0.014650478271784001, -0.01836497133504816, 0.09646314997074461, 0.321270859705998, -0.003578297389457025, 0.3578074661653498, 0.14932599529901042, -0.6931052340977536, -0.08414297028731144, 0.044881414624418484, -0.5342314060995516, -0.16317664461427434, 0.6010691791557765, 0.11694019174411494, -0.5493698072297866, 0.09739848253425415, -0.40981245167452823, -0.03303917819201311, -0.004560156745810194, -0.3409764026228399, -0.018617370830097686, -0.07107863180085776, 0.2356649223406791, -0.6573625536822181, 0.06190758833404093, -0.07207238279681502, -0.10979535017068294, 0.4231906400036409, -0.7320626001133645, 0.31011168320739235, 0.4716517799186129, 0.30122021715560493], [-0.8198052631485094, 0.005092461295015947, -0.12260515894236687, -0.20014843935105897, -0.02653428505328227, -0.22298609260332253, 0.19292419361709204, 0.7024675841054291, -0.37080563373984493, 0.015230883482541417, -0.13306306036039045, -0.14334881307105746, 0.13698427980891945, 0.07976525567136859, 0.6914612174055315, -0.2697905837645898, -0.08384555808717963, 0.4327857357792687, -0.10465133861280322, 0.11567291277909401, 0.028629262904794173, 0.2532619936412946, -0.20565311364853317, -0.46454851717706575, -0.011188641196930076, 0.32240610796288866, -0.1491911210325841, -0.3427307870808283, -0.617630340712093, -0.20044241336243793, 0.25860246796898934, -0.21436201787972753], [-0.059610448766218425, 0.06250942531820455, 0.07407965421557682, -0.10213768493872356, -0.024883444651265352, -0.3716013392922461, 0.14784921117389366, 0.3457513224725165, 0.04576106694133928, 0.06111577004992412, 0.004898967371057197, 0.060934518075242125, -0.14997228646038432, 0.11762204440072575, 0.23812851473382693, -0.11865702050377397, -0.0014488074165591226, 0.003747723082999622, 0.18688780820264703, -0.03739618153107108, -0.0038609423887457834, 0.11439246000736752, -0.22973510972355973, 0.024051832474980456, -0.06818298416872834, 0.16506712031189313, 0.041071254145504894, -0.19277368124398858, 0.05720031535064165, -0.10762884929165845, -0.010912140901406834, -0.21498539153430016], [0.09019453967918689, 0.22469831874345192, 0.18389656360503762, -0.05337564011917207, 0.48275555612402027, -0.6018724424928911, -0.056983010710407296, 0.38180306487880233, -0.3180670448030895, 0.020891183699735923, -0.5508236679540628, 0.02879329333156738, -0.01004141569424591, 0.18974223824847486, 0.15869026720886079, -0.04815977886162802, 0.3860997665114505, 0.7606492300176795, 0.5271871232126804, 0.4171204261710914, -0.05245181903811936, 0.05210169827490914, 0.15479077697437457, -0.9286974551574808, 0.04403566685494039, 0.12140793010687362, 0.16049544338308488, 0.12286485483480748, -0.2637056907535257, 0.37285722415975936, 0.8774119461881694, -0.03522889143034985], [-0.21419330753726917, -0.042439853018164844, -0.2050908740166212, -0.022694703600129595, -0.0018002333595416309, -0.10580116834913438, -0.06682850673168741, -0.036740822603448305, -0.06333431687946137, -0.1537498462902698, -0.10626031052626247, 0.05160679469981776, -0.06934032200485127, -0.01535730520060866, 0.03292830925023023, -0.025617454531067955, -0.024354995946179313, 0.0937006085491468, 0.05329064770515179, -0.08775542590548605, 0.058137985519000554, -0.015257669590158155, -0.11741641818773386, -0.331240543924855, -0.002115268485454286, 0.138674284649768, -0.09384590978312621, 0.05449095950609324, -0.013603532898288848, 0.11753880985776549, 0.18421892646013796, -0.10225536830849528], [-0.16488839100039893, -0.15943037462709056, -0.3752898860526367, 0.017831921779829285, 0.07300150302978972, -0.09176239946933061, 0.12234732451978385, 0.057444305196584194, -0.16057810101404676, 0.03938577225183523, -0.8987703648641052, 0.24579971318811353, -0.14586505021229998, 0.19969671471873499, -0.4195241412524896, -0.2301849635079062, 0.3592144162314469, 0.8011112356221836, -0.12707749168844842, -0.3038094774371737, -0.05410039968319077, 0.018554628888630163, -0.23518158551074772, -1.381193516963587, -0.1387166711139132, 0.07229606550220538, -0.382012486041164, 0.4487733731952121, 0.08123611950946547, 0.5045264728232858, 1.1036086596040142, 0.018594950864891498], [-0.07052755556497985, -0.07468287280216485, -0.04961731189078813, 0.06578091450604989, -0.34955291354846163, 0.6671618409072166, 0.029174861506925713, -0.5074939340077098, 0.13224876645499764, -0.13180440387663428, -0.06567749921430664, 0.0008172681016021146, 0.17565543466751396, -0.07431553661145886, -0.12267760134796316, -0.09158043807640912, -0.12088940566061265, -0.16518001173022895, -0.14822321958434456, -0.3230608291122341, 0.04540185063529892, -0.03993908669545255, -0.1579993051880068, 0.11702478139586751, 0.006990255010374083, -0.02705916244484792, -0.2694191562618478, 0.012365366791224979, -0.16746102121941467, -0.09826877819155562, -0.3531736621604636, 0.10512309428488735], [0.20487338345760472, -0.28326916145201886, -0.17907378476023533, -0.44096647108704373, -0.19140952783488488, 2.700049197806239, 0.18913012184157021, -1.3975155346428079, -0.4290647354246609, -0.34239606641500264, -0.05028679131927237, 0.3554553772200685, 1.7106449492674614, 0.19135581838197133, 0.13797981515110513, -0.7045246877516737, -0.6742379062791222, 0.026022581225537147, -0.1475704491930629, -0.6135940363457528, 1.0440900266298647, 0.8277687291097575, -0.1965226729335098, -0.03339157299071786, 0.24819059100966992, -0.3948582306022306, -0.10294355589578924, 0.2589600143170694, -0.7520745343550029, 0.121633979729017, -0.5169247247270238, -0.056670821823583344]], [[0.44023279916319513, -1.9701182381767357, -0.4851053748739755, 0.7402004512972934, -0.3918943031504902, -0.25590270914183655, 0.14841067464057844, 0.8568206740930353, 0.10150912010156075, 0.3921656249617288, 0.5245037458578793, 0.5831937212086622, -0.46786040593761924, 0.6854978427497016, 1.8245887133594554, -0.5113967147428393, 0.08188661725388591, 0.958536362249119, 0.8383661287076611, -1.0659991359371868, 1.5270369885876167, -0.3666828513896008, -0.15427063344396522, -1.2475205922449295, 0.49156196289681553, -0.41854332115099196, -0.11076347471057746, 0.5465866791088576, -0.10152465805813557, -0.19392336222997406, -0.39748889771740814, -1.0874928151196126], [-0.8179595845709379, 0.5909123519759885, 0.45000913549698185, 0.1786762318402443, -0.4924286170585637, -0.8564367815432262, 0.6724228311046261, -1.0514497322147631, 0.16768970975512415, -0.4334460045073402, -1.049470719904926, 0.004335461457737734, -0.7032903277299266, -0.519793274910747, -1.9650718221855206, -0.5449104802335077, -0.4948710260703551, -2.6021521972900223, -0.13545184973234664, 0.6521154790813151, -1.1242785174498424, 0.09106585870966104, -1.9347491456340933, 1.6197321469226333, -0.05315469805028194, 0.6790321867331606, 0.25596365277874505, 0.6967059521227158, 0.18692524092052432, 1.0903668579298098, -0.6375020501780859, -1.9640098890088247], [-1.54270746460816, -0.0008661016197798558, -0.7180196136379512, -0.38954771309843106, -0.3242072347974336, 1.0247376324762585, -1.4029245073350027, -1.2736415186764318, -1.0508710672137647, -0.24307432372204904, 1.3207140459214672, -0.9094930912914145, -0.45780138012479804, -1.1674982224716228, -1.0893573613082586, -1.0633036564173253, -0.22004475020288636, 1.6196268738019752, -0.33416090796010217, -0.40418226625132436, -0.42611997690453046, -0.5121419909782312, 0.9579319595496733, 0.25424355694997475, -1.2464986795198938, -1.3184182203652444, -0.03353114237501216, -1.341002466621127, -0.3599633129611605, -1.8043206274379138, -0.2792167358045309, -0.7507314385133128], [-0.30924311235394303, -0.5409007446350687, -0.1229169759311217, -0.3104694390220884, -0.047390456368720864, -0.1655609247053976, -0.44195424404069966, -0.4232616497060495, -0.3125796582500706, -0.1782385063255011, -0.3908997344918304, -0.2518722747310358, -0.1957835234640612, -0.4008178278195049, -0.32226067425283345, -0.2976283586042711, -0.2719790187168154, -0.15475622302359412, -0.09972475749495346, -0.4151601935063176, -0.0172086589481469, -0.3863674334747357, -0.46243545596719426, -0.32030494792576925, -0.23244638054465291, -0.2763522716571131, -0.1974241179538656, -0.282104750743769, -0.19081068241376847, -0.26038834096997326, -0.35388730866205925, -0.14596195139454352], [0.3599830913503238, 1.4858412857766496, -0.05703355071616616, -0.4535352239031025, 0.8105080516484494, 0.22862053104320626, 0.19106277183760959, 2.003789487317823, 0.015594787366508657, -0.4100491507886789, -1.6169227639679744, -0.17126959120687435, 1.140359718951143, 0.5660536521877637, -0.22465081015241084, 0.9161739226930619, 0.17595557609653573, -0.4092357240242878, -0.3708308413654161, 0.2836459446221217, -3.2513035954604685, -0.21755783585076027, 0.6130920212804535, -1.9961188910450234, 0.46989389052551084, 0.01762231047819153, -0.25653533991894034, -0.8042938578940452, -0.006626409174357379, 0.22513496869910138, 0.37638935940212404, 2.710976981458061], [1.582473239567679, -0.2647762903895525, 0.47008104392713596, -0.35076369071245933, -0.2767072576847745, -1.1656817103078647, -1.2063614377350478, -0.4592788258879162, 1.1174335656986516, 0.09528643252505228, 0.22064725646755146, 0.9075780179725513, -0.3816610992343995, -0.028229578429946545, 0.1548681224753249, 0.027925804681276988, 0.9840186259704949, -0.9837716543174955, -0.4916452278530728, -0.34799048887855755, -0.3558468047563759, 0.24831814108700276, -0.057746747658946364, -0.10572642581935728, -1.5371157128371142, 1.071604959108284, 0.5139288934991338, 0.2003329442617702, 0.06304859400518592, -0.3597326350134504, -0.2516372657692004, 0.5281624415826729]]], "biases": [[[1.188700867132955], [0.40827224906347254], [0.13482573224109834], [-0.9275183204000902], [-0.48133687983964235], [-0.5198457968641697], [-0.6925987918307158], [-1.704651920574778], [0.8491870802120409], [1.5728830968258327], [-1.4801571081765534], [1.0969981027281883], [-0.6115886092370009], [1.0373208401712868], [-0.8413903332672305], [2.1660112593619907], [1.5773625361998649], [-0.25691620931820996], [0.1929896310888239], [0.48905225901140387], [0.29641753255904774], [-2.2705698363518856], [0.11165395083427802], [-1.0733832900174805], [0.11665396809619998], [-1.4470465825717558], [0.6909263903481848], [0.5550520618370951], [1.6542397883811608], [0.1765530762127564], [0.4187006280709336], [-0.36282018272837646]], [[-0.40170487523953663], [-0.6315181221418523], [-1.7190353510076528], [-0.2243965649831415], [-1.0940866533244606], [-0.17748116363370747], [0.7705873247618372], [1.7317290269231984], [-0.07763462276921439], [-0.6431059884794047], [-1.5639677542156258], [-0.2852217522645699], [-0.9782692988036897], [1.6244345965701035], [-0.366110674484259], [-0.436286300828115], [-0.9760750007770188], [-0.626623414814279], [-0.4529277844140272], [-0.49352724125541975], [-0.799906644171737], [1.7950253629292068], [1.3905400177230842], [-0.5768976572950644], [1.0683505439100511], [0.5535297718849354], [-0.9892442370405761], [-1.3675921157318718], [-0.7110681182232002], [-0.5896101232673894], [0.49222263082309814], [-1.3841253021426996]], [[-2.5360902022708824], [1.2260235865340363], [1.7381284376489121], [-1.5297905538838166], [-2.2042233633977433], [0.27423748291553396]]]}