{"layers": [10, 32, 6], "weights": [[[0.8639113161603171, -0.011821791054170293, -0.2978846802183951, 0.5786523075272149, -0.2431281788931943, -0.2611744579913899, -0.10528782132294348, 0.19826683013142607, 0.20264449042338492, 0.17007106241338826], [-0.45900825082560237, -0.41158009302154563, -2.3133125542354414, 0.8407292412758871, -0.42423785482895016, 0.2490540126875532, 0.12907802272055213, -1.3971638554817778, -0.10572597168468063, 1.8939014769155034], [0.41519846899150875, 0.21592677875793984, 0.5919674464605208, -0.42054574183088206, 0.1699505028669501, -0.06856441851324496, 0.06348127784967242, 0.584530792940084, -0.4730613956142796, -0.08996389640944866], [0.21534029891474632, 0.28398557035757144, 1.195486383517124, 0.17429323721555506, 0.19102215174097015, -0.34969929525294335, -0.14196769341003385, 0.42522269733941037, -0.025038084761666413, -0.9077121934831176], [-0.2015935715446105, 0.11779278638485424, -0.3819134921235588, -0.5385050028382611, 0.002398446482700581, 0.1567139132384818, -0.10876096581745459, -0.9688535557892582, -0.3785193566804214, 0.40310595660318965], [0.006533543975746612, -0.3038283696076662, 0.09999442674944253, -3.3146529972705117, -0.06525757402233447, 0.32832344070184677, 0.004052641693827927, 0.4552444759456193, 0.12894503084195416, 0.2671887067255432], [0.15199115751986117, 0.20912042292666544, 0.33516115247925543, 2.2040059353188646, 0.2949032733137606, -0.07655616181721096, -0.022678607007322108, 0.4006907741428443, 0.10439330631005996, 0.13435532370568898], [-0.20888579843193164, 0.3810164844644082, 1.1474006251908149, -1.356275542670802, 0.8188748012559665, 0.3125326661226337, -0.21408969009404794, 2.3842818611139283, 0.06519932926195733, -0.6032268483022166], [1.2662532091511622, 0.019120372730813136, -3.6519710424079315, -0.898142087330031, -1.6934191051926755, -0.8074541590970905, -0.08900291294492642, 1.4819057845935177, 0.2013469995973559, -0.6697594792121784], [-0.0637409046082392, -0.15655262402399395, -2.3427012589087006, -0.46887602878507206, 0.22523924316133917, 0.7532104655754771, -0.3317180045812459, -0.8418622992410276, -0.020784834326378256, 0.07948869602230481], [0.34560463936888375, -0.06265620145878269, -0.0592475419737069, -1.6109169330713171, 0.06352042833395591, -0.017833457519743228, 0.9841313799154787, 0.8920664259288472, 0.2749773701264026, -0.5279407887820525], [0.6413694592001581, 0.1540527526839057, 0.3191704815217486, -0.03943809469347002, -0.018006371797273796, -0.07715927191515395, -0.2595007264594079, -0.1747499039013277, 0.05100979019589617, -0.08931753103907471], [-0.26227363394691283, 0.04780510482449498, 0.5305534171935541, -0.726605582865475, -0.07967554676403589, 0.06406370586897588, 0.04064384916341998, 0.12680894723867364, -0.08433491364980673, -0.33933932866065775], [0.1882953722591717, 0.32381336486820217, 1.3555826945694427, -0.3438263907113583, 0.06596208711499355, 0.040753638378326046, -0.05205331084054718, 0.5618806354285198, -0.0034786794677852937, -1.018841447455079], [-0.7564548130739501, -0.30353469538352135, -1.282750746766778, -0.2518062255985375, -0.31144047044609235, 0.0712251933737129, 0.5174966495581618, -0.3773997440686942, -0.17105120899431733, 0.5870992352544487], [0.004075226633467607, 0.00507639517160379, -0.2429785468075001, 0.1018175211956925, 0.2682273158298304, 0.08113230525460266, 0.015632498859187036, 0.024276277966527062, 0.13381878619539528, 0.18026007616485984], [1.4366482561205596, -0.050156088417426796, -1.562638260414575, 0.1285213407526217, -0.44740056760072067, -0.647500483837713, -0.10816735925726825, -0.13439866758189034, -0.30994076841272616, 0.7487156793674167], [-1.9322681368126302, 0.05193263628160748, 0.3566485356109387, -0.09176720458250501, -0.3536221627539188, 0.23266822477579213, 0.432898368926963, -0.1947538505183524, -0.17357744067815345, -0.5103083365852656], [0.004235767806718231, 0.041897246405726875, 0.20935385426527275, 0.40626796322388, -0.36060984965970416, -0.25374759651649026, 0.439399926345963, -0.2739998803218712, 0.07159424800622302, 0.14095164998521792], [-0.4816238010105131, -0.23420968706550718, -0.07483234189384327, 0.35321509374821003, 0.06543715560410582, 0.24859176207880487, -0.34604131548178746, -0.4519384300058044, 0.18052505719186668, 0.3550625766447936], [4.531356207734448, -0.45858831450955984, -1.3599858779993423, -0.35287380898295795, -0.8476991939350264, -0.8361851886022309, -0.15756454338505574, -1.5909185694326218, -0.3376000673272764, 0.16670916074585043], [-1.5515794816310642, 0.2310606738518315, -1.2031776412569062, 0.08594201184633682, -1.139651070471124, 0.06159122153012488, -0.07366776609512846, -1.7752524418077038, 0.27397980843035474, 0.6176993958365057], [0.04061205470892043, 0.05074724755052993, 0.5067351890360934, 0.5180580793067958, -0.0807073758196266, -0.46889901400049716, 0.1988339569022148, 1.6095497408063206, -0.010351945889928129, -0.3505617669232568], [-1.7628477136270053, 0.48814782195601636, 0.8043480760921385, 0.0765923670007259, 0.3634886420148378, -0.010438298392748246, 0.01469384772547025, 0.8367048848819387, -0.6891719711733942, -0.6545298311488945], [-0.1408252022878249, -0.11259048088287414, -0.6792592028925123, 2.013661178932495, 0.2947903892549357, 0.22857343784115203, -0.43111242089570156, 0.5322849791579359, -0.2995180955062208, 1.2517601999269652], [-0.15926080091793798, -0.23528455275701846, -1.3908902800960836, 0.2525821237005035, -0.5818033488395588, 0.0532775252536449, -0.03593832347885746, -3.0331414188401324, -0.25654797200519447, 0.910941695875922], [0.2670213829754323, 0.10772501497408539, -0.42739000740690025, 0.42590241749058255, -0.026091697268350603, 0.07057750612596245, -0.16249732242028017, 0.2634960057877068, 0.0815682955302247, 0.48728959259282345], [-2.918946409627608, 0.4976855275114005, 1.1929257411274865, -0.35273940366650514, 0.4891050603908875, 0.527270855289468, -0.020267524911637903, 0.7458849092821844, -0.01385227909887179, -0.2863631168216625], [0.651244292874884, 0.08918411988821125, -0.47103828143727416, 0.2901085673070052, -0.07977813645869056, -0.26111750693810704, -0.21051997493345165, 0.6553174378588054, -0.009994910542411263, 0.3296810106116789], [-0.25282061732619654, 0.07740217163404602, 0.8376908144296119, -0.736844100822701, -0.0422449736997016, 0.15301028170044068, 0.039808642434865905, -0.17369014165237592, -0.07057745989414545, -0.6866810943869912], [0.6235265324921448, -0.12106648802102264, -3.2311384302894837, -1.7454674557008678, -0.5596017637094207, 0.09039316337559809, 0.002835358247255155, -1.3709149560577947, -0.14444142550465044, -0.2392676824420872], [0.6642340728052808, 0.011343126744824657, -0.2578789499760407, 0.05577063285549967, -2.4150047649958877, -0.06182671392929287, -0.12079736250082086, -6.405481994528631, -0.12912604112130355, 1.6511357585138593]], [[-0.14600313921860425, 0.7098247255355494, -0.9610396065361388, -0.6382945159889963, 0.5985397077817496, -0.11012294193165391, -0.3883688839960436, -2.2825552742021165, -0.9905520331910246, 1.0735853713628252, -1.5224167943252869, -0.2868830088411899, -0.2867838860356792, -0.41757650059649554, 0.14306299366994052, -0.0076149437166285845, 0.11468604721156468, 0.9648472899264975, 0.21491958605154513, 0.11721187484802224, -0.08872820994293827, 1.603275315089139, -1.2034836199365524, -0.6282071918775658, -0.7659215176696211, 1.39046229661446, -0.08008058267963084, 0.2879177427052823, -0.3815258147467664, -0.29047307799549527, 1.2562132908068548, 2.188466647317601], [0.6939561307504499, -0.9710663035923174, 0.5612206410461116, 0.6306261182866321, -0.6189411619177088, -0.6646418450804136, 0.8161559012904673, 1.0915970170771097, -1.1796696849281723, -2.136852352939915, -0.05695525659005003, 0.3118547938493042, -0.30374723919898305, 0.22961019067595687, -1.3631313774108018, -0.27064208214082036, 1.3374614448661468, 0.6351795361039682, -0.07621121400548034, -0.7654586759272094, -3.307551002733625, -1.6736064937712425, 0.6908655103786087, 1.1601580670570817, -0.16323628737034626, -1.6293567848299664, 0.2112086742613759, 1.2808122046279622, 0.7281127545792512, -0.34410130138837797, -2.5309072125848133, -0.7284008094639383], [-0.9189842335406276, -1.617755758185023, -0.4562106102734832, 0.17843735722969345, -0.30065991506034473, 1.2269020658521745, -1.0328425338061888, 0.9240454743820814, -1.875030959722251, -0.5112494586640367, -0.1628599558511779, -0.49837913648081983, 0.5330888518077315, 0.7030489310781913, -0.1110863580288118, -0.5616266832305448, -2.119440880968085, -0.6981313722410744, -0.6569313082183021, -0.42793216904577935, 3.385721378513921, -0.3687311668444589, -0.10668373640883537, -0.9725887974441259, -1.2426958408940334, -0.49372780009978223, -0.8409170824991844, -2.389857972508268, -0.9023751658813617, 0.5788044717306625, -1.4296944512085983, -0.29408653718803096], [-0.1245873512060849, -0.30632189945064797, -0.3740915832603769, -0.3009372205728013, -0.3265981300708547, -0.3012081039491557, -0.14214712154505518, -0.31185716915389616, -0.19036721165499346, -0.1791675802480774, -0.47247259048604706, -0.2780821925116736, -0.29240431501352027, -0.13443538404728472, -0.32390068719681014, -0.5095701891066523, -0.26105148914352266, -0.0754014818759929, -0.4642393329947214, -0.26334321061466515, -0.26445830321333164, -0.19696868014886282, -0.34979308821034194, -0.08640055569608938, -0.3311399539912318, -0.12328163239609415, -0.43034824998738735, -0.08578867228475054, -0.27774345711998477, -0.35815274812689396, -0.31312383326243354, -0.2038408906069961], [0.13887508892173442, 1.8568397922682964, 0.025965357672243776, -0.8945173049584317, -0.11446761646339344, -0.2053934403059926, -0.19728487268160763, -0.4066529808674921, 2.8476735186896867, 1.2028867631757199, 0.8517892995038877, -0.591415049292134, -0.46132780168980536, -1.000883970925557, 0.7845054321521312, -0.26332106205743583, 0.9072999210557384, -0.5304199876973298, -0.8062972628195417, 0.24984927158638925, -0.06138626024154821, -1.5941030502281766, -0.2052507720346115, -0.4123134390387034, 1.198268917842802, -1.63158796918933, 0.15179242133493448, -0.37125265137251134, 0.16324760001187227, -0.798053450451865, 1.7247937770728046, -4.020448333223418], [0.3920140637416982, 0.14138948597191478, -0.3657244675899624, 0.37150361569809226, -0.703449847036518, -3.2501197043873002, 1.91804854333617, -0.6078766499239519, 0.1421105356251281, 0.08947098366543262, -0.26027647461825887, -0.13862913361014978, -0.5831764411452379, 0.09863107797307005, 0.023047841724162275, -0.164762330875263, -0.25901044491690084, 0.13350292991132534, 0.16213617634088623, 0.07206181533040858, -0.27888486618410746, -0.19288309400189474, 0.4030482707562399, 0.018540753989244246, 0.38882925132804314, 0.18389803689862144, 0.12294175093294, -0.15845228536615713, -0.1503463096635648, -0.5207087013827998, -0.6819705698628972, -0.032792547214267935]]], "biases": [[[-2.229194414941728], [0.9848354539452085], [0.34374785399584834], [0.4285612005436501], [0.6849806146665808], [0.19002187748047678], [-1.3815284801821108], [-0.24595264965130442], [-3.1428276709138117], [1.1714167402080997], [0.503051759248932], [0.3352969633827428], [0.5566900872630566], [-0.6370387820788307], [0.5306050492196513], [1.9624081348182665], [-1.7950539738449558], [-0.7976662073544717], [1.0514210939699962], [1.1388237857958035], [-0.8302424171493814], [0.3137019718359279], [-1.3876215225229314], [0.2172023815997666], [0.40680664216439966], [0.03659839292796807], [0.21325415608051962], [1.2359541438850357], [-0.63804791273106], [0.6264200749122283], [0.7622744204892351], [1.3774579577145116]], [[0.04117901112367892], [0.042640657371907656], [0.8675605908225563], [-1.1036908220818649], [-0.25705285164094904], [1.0846779252210406]]]}